tree
version=v4
num_class=1
num_tree_per_iteration=1
label_index=0
max_feature_idx=17
objective=lambdarank
feature_names=cf_score llm_score hybrid_score cf_weight llm_weight behavior_cluster involvement_diversity journey_encoded cluster_label_encoded age_group_encoded gender_encoded product_price product_popularity major_cluster sub_cluster preferred_cluster_match price_sensitivity_match keyword_overlap
feature_infos=[0:0.74909906941731352] [-0.10616232454776764:0.73159414529800415] [-0.063697394728660581:0.586843656009989] [0.40000000000000002:0.69999999999999996] [0.29999999999999999:0.59999999999999998] [0:5] [0:2] [0:3] [0:3] [0:5] [0:1] [1.4099999999999999:2599] [0:0.0011700468018720749] [-1:105] [-1:1003] [0:1] [0:1] [0:6]
tree_sizes=374 3521 3510 3519 3535 3533 3512 3537 3523 3525 3517 3516 3540 3538 3551 3504 3517 3521 3524 3524 3529 3547 3528 3537 3521 3514 3551 3554 3496 3531 3536 3564 3541 3507 3531 3498 3531 3518 3529 3557 3514 3526 3476 3515 3535 3518 3529 3530 3520 3482 3506 3506 3505 3562 3535 3487 3546 3502 3503 3513 3532 3495 3492 3547 3481 3535 3525 3514 3550 3545 3523 3449 3497 3539 3493 3541 3482 3522 3515 3494 3567 3508 3491 3508 3478 3458 3492 3533 3519 3530 3527 3484 3449 3482 3485 3494 3476 3510 3538 3513 3505 3500 3537 3535 3501 3571 3519 3492 3523 3492 3447 3506 3475 3468 3509 3512 3519 3489 3465 3509 3506 3432 3473 3524 3512 3549 3495 3539 3536 3544 3504 3554 3500 3563 3524 3540 3500 3550 3517 3528 3475 3477 3556 3475 3538 3494 3506 3560 3487 3479 3480 3534 3474 3476 3409 3517 3531 3455 3460 3528 3547 3485 3541 3473 3489 3462 3450 3531 3538 3552 3507 3537 3517 3515 3491 3524 3526 3479 3542 3522 3506 3515 3485 3419 3451 3507 3464 3495 3437 3492 3520 3516 3453 3510 3462 3499 3500 3520 3515 3485

Tree=0
num_leaves=2
num_cat=0
split_feature=12
split_gain=9305.07
threshold=0.00058502340093603757
decision_type=2
left_child=-1
right_child=-2
leaf_value=0.10000000000000001 -0.10000000000000001
leaf_weight=1163.1333832144737 1163.1334130414762
leaf_count=397169 310013
internal_value=-1.28218e-09
internal_weight=2326.27
internal_count=707182
is_linear=0
shrinkage=0.05


Tree=1
num_leaves=31
num_cat=0
split_feature=2 1 2 13 13 13 1 13 7 1 2 13 1 13 2 13 13 13 12 12 17 13 17 5 17 17 1 9 1 17
split_gain=23186.5 834.455 434.244 229.736 156.17 69.7874 65.7352 49.7174 46.9372 43.308 40.2207 34.1322 31.3493 24.2403 35.3283 30.4054 22.8699 26.7256 22.8016 22.4026 22.2585 20.1229 18.442 17.9632 17.6376 16.913 17.4148 16.0361 22.5649 15.8696
threshold=0.22376185655593875 0.3233629316091538 0.25777748823165897 101.50000000000001 87.500000000000014 102.50000000000001 0.47721207141876226 101.50000000000001 2.5000000000000004 0.39262515306472784 0.20331312417984013 93.500000000000014 0.29062205553054815 26.500000000000004 0.19489393710829908 40.500000000000007 39.500000000000007 33.500000000000007 1.0000000180025095e-35 1.0000000180025095e-35 1.5000000000000002 96.500000000000014 1.0000000180025095e-35 2.5000000000000004 1.0000000180025095e-35 1.0000000180025095e-35 0.29268299043178564 3.5000000000000004 0.44480073451995855 1.0000000180025095e-35
decision_type=2 2 2 2 2 2 2 2 2 2 2 2 2 2 2 2 2 2 2 2 2 2 2 2 2 2 2 2 2 2
left_child=1 12 3 8 10 22 7 18 9 11 13 24 -1 14 23 16 17 -15 -4 -11 -17 -10 -5 -3 -2 -14 -27 28 -9 -12
right_child=2 4 6 5 -6 -7 -8 27 21 19 29 -13 25 15 -16 20 -18 -19 -20 -21 -22 -23 -24 -25 -26 26 -28 -29 -30 -31
leaf_value=-0.098378076356117797 0.035360711025679913 0.075893024992257516 0.082712747129273387 -0.099987827061094561 -0.084854214899941494 0.054137230663670634 0.095784527627435501 0.037288597262122879 0.091426484053431428 0.06218600843274659 -0.0053727935078023877 -0.099879082033188321 -0.083350438275790681 0.049449641089147879 -0.099935182342446 -0.051732542732178102 0.077108319517383686 -0.099974988423324057 -0.091562139958900876 -0.091170574844708155 0.092674961312527393 -0.10000000000000001 0.015987560545696954 -0.099916089796841356 0.080652756561480674 0.090271344754606658 -0.099860858821373077 0.046659272387621395 -0.099971107630696512 0.047831915857564938
leaf_weight=3086.7535905246041 220.94259517709725 5.0700790178962043 1038.2543306816369 32.271334580611438 92.535719282866921 11.42035319667775 2062.0398509845254 6.4269821245688963 112.60809550620615 675.62768099748064 265.1760462494567 4.4553434825502327 313.71423613518709 6.2057237003464252 26.690986617875751 48.803081029967871 11.05496072222013 5.779141352919396 1.8802733605261881 2.3898283544112919 2.8227790351957074 1.3898015394806851 3.8351689314004025 2.0365084648365155 23.811459177872166 2.8501509941415852 2.0856211400823668 19.6148166351486 5.6060203417437151 14.797528444672933
leaf_count=285817 33679 32891 40828 1397 19789 2169 25605 491 14205 50321 39690 1328 40686 4692 4268 52693 4281 7894 17693 20341 426 305 67 309 1323 41 624 889 747 1693
internal_value=1.61282e-09 -0.0881296 0.0811128 0.0539095 -0.026481 -0.0535941 0.0905637 0.0805193 0.0588165 0.0550942 -0.012575 0.0372705 -0.0968367 -0.0384244 -0.0735575 -0.0225214 0.0252402 -0.0226034 0.0823977 0.0616455 -0.0438367 0.0890927 -0.0876691 0.0255121 0.0397671 -0.0819055 0.00993057 0.0187825 -0.0266589 -0.00256075
internal_weight=8108.95 3886.38 4222.57 1088.75 480.973 47.5269 3133.82 1071.78 1041.22 927.227 388.437 249.209 3405.4 108.463 33.7976 74.6657 23.0398 11.9849 1040.13 678.018 51.6259 113.998 36.1065 7.10659 244.754 318.65 4.93577 31.6478 12.033 279.974
internal_count=707182 495794 211388 125135 168626 3633 86253 60648 121502 106992 148837 36330 327168 107454 37468 69986 16867 12586 58521 70662 53119 14510 1464 33200 35002 41351 665 2127 1238 41383
is_linear=0
shrinkage=0.05


Tree=2
num_leaves=31
num_cat=0
split_feature=2 1 2 11 1 13 17 11 11 2 11 11 11 17 11 11 11 2 13 13 11 13 1 1 9 14 14 13 14 16
split_gain=4220.84 581.28 571.698 198.377 174.355 157.451 149.001 121.528 92.5524 78.1403 69.6595 65.6532 163.48 59.2347 53.8497 53.7572 53.6139 49.4535 39.7763 72.7105 38.8738 37.9981 35.7638 34.9046 34.3168 34.0943 33.7743 31.729 60.317 31.5778
threshold=0.26779066622257236 0.3233629316091538 0.32087523937225343 1.0000000180025095e-35 0.40296049416065222 18.500000000000004 1.0000000180025095e-35 9.4850000000000012 7.995000000000001 0.29030622839927678 7.6350000000000007 39.00500000000001 40.00500000000001 1.0000000180025095e-35 42.340000000000011 3.7750000000000004 16.995000000000001 0.29343500733375555 34.500000000000007 36.500000000000007 9.3650000000000002 57.500000000000007 0.54233273863792431 0.56689465045928966 4.5000000000000009 566.50000000000011 503.00000000000006 41.500000000000007 393.50000000000006 1.0000000180025095e-35
decision_type=2 2 2 10 2 2 2 10 8 2 10 8 8 2 10 10 10 2 2 2 10 2 2 2 2 2 2 2 2 2
left_child=1 -1 3 5 15 -2 7 8 -6 13 -11 23 24 18 22 -3 -9 -7 -5 -20 25 -19 -14 -4 -13 26 -21 -22 -29 -27
right_child=2 4 11 9 6 17 -8 16 -10 10 -12 12 14 -15 -16 -17 -18 21 19 20 27 -23 -24 -25 -26 29 -28 28 -30 -31
leaf_value=-0.080442320449201701 0.042597979080726697 -0.081522784705844967 0.054307981147506006 0.021978991396617992 -0.027831811490800919 -0.10011987608193305 0.029588001980104431 -0.0025027560964847439 -0.075129515192254678 0.054139025244832134 0.026258416002614457 -0.1006769227780205 -0.10044095342317767 0.048621899051432799 0.065830037673716979 -0.039834891952727311 -0.02368520516868082 -0.10067449119693334 -0.10076033080800173 -0.017640564366678841 0.042047812792773823 -0.014897271430992023 0.030301732091704711 0.0720028193174162 -0.0054473422601240057 -0.022343599966133262 0.046949462649988213 -0.099684941332815469 0.010834277527057887 -0.099830480187061851
leaf_weight=666.33297746704193 50.330761775257997 81.999379508488346 502.59188721899409 517.18030513689155 273.24325469555333 50.927128598908894 145.55097172805108 500.50132036115974 166.42792569007725 273.82724974036682 1232.0543034103466 21.080779449315742 5.4758640932850531 117.53010985272704 220.18949989695102 1358.4814258275146 740.95213426084956 16.99298768513836 16.269916514516808 53.606161361560225 79.063666176458355 53.746603048872203 116.76222033833619 625.60164838295896 17.161819834262133 61.938169809815008 32.515875452198088 12.710396902635692 429.88301377155585 16.691387126920745
leaf_count=328110 566 12237 2544 11507 22179 2359 5889 37240 18834 2329 12852 194 129 1513 747 165138 59310 403 631 1628 1264 684 534 1255 75 2294 514 763 12294 1166
internal_value=1.81123e-09 -0.0378812 0.0329357 0.0203624 -0.0292009 -0.0317811 -0.0189438 -0.0231457 -0.0457353 0.0235167 0.0313282 0.0580617 0.0401065 0.0147211 0.0510566 -0.042208 -0.0151453 -0.06255 0.0114549 0.00370903 0.00618527 -0.0355026 0.0244449 0.0641201 -0.0579415 -0.0149878 0.00674578 0.0128722 0.00766039 -0.0387924
internal_weight=8457.62 3933.49 4524.13 3015.27 3267.16 171.997 1826.68 1681.12 439.671 2843.27 1505.88 1508.86 380.67 1337.39 342.428 1440.48 1241.45 121.667 1219.86 702.679 686.409 70.7396 122.238 1128.19 38.2426 164.752 86.122 521.657 442.593 78.6296
internal_count=707182 648937 58245 52767 320827 4012 143452 137563 41013 48755 15181 5478 1679 33574 1410 177375 96550 3446 32061 20554 19923 1087 663 3799 269 5602 2142 14321 13057 3460
is_linear=0
shrinkage=0.05


Tree=3
num_leaves=31
num_cat=0
split_feature=2 1 1 1 1 1 11 17 11 11 17 1 17 11 11 13 13 1 13 13 13 11 11 1 11 13 13 13 11 11
split_gain=4237 722.28 550.914 136.905 113.399 82.3788 70.6568 47.3952 29.3241 25.735 24.4114 23.5527 26.9846 29.045 40.1871 35.3146 28.6583 27.8554 24.9036 22.0422 21.0894 20.5143 71.9033 25.6839 25.5294 21.2083 20.2147 37.4901 21.6475 30.0862
threshold=0.25777748823165897 0.50536864995956432 0.3233629316091538 0.47464659810066229 0.39262515306472784 0.56689465045928966 1.0000000180025095e-35 1.0000000180025095e-35 199.45000000000002 3.7750000000000004 1.0000000180025095e-35 0.45545393228530889 1.0000000180025095e-35 12.495000000000003 14.405000000000003 53.500000000000007 51.500000000000007 0.45218144357204443 92.500000000000014 8.5000000000000018 -1.0000000180025095e-35 49.960000000000008 39.00500000000001 0.49980585277080541 42.340000000000011 5.0000000000000009 8.5000000000000018 27.500000000000004 119.97500000000001 39.985000000000007
decision_type=2 2 2 2 2 2 10 2 8 10 2 2 2 10 10 2 2 2 2 2 2 10 8 2 8 2 2 2 10 10
left_child=2 3 -1 6 8 -3 19 9 10 -6 -4 12 13 15 -15 16 -8 -14 -17 20 -2 22 -5 25 -25 -24 -13 -28 29 -29
right_child=1 5 4 21 7 -7 11 -9 -10 -11 -12 26 17 14 -16 18 -18 -19 -20 -21 -22 -23 23 24 -26 -27 27 28 -30 -31
leaf_value=-0.078701719368753767 -0.059208764858095203 0.045412391887415117 -0.044621334791417014 0.029329087774639429 -0.06176000923610462 0.06632552446961848 -0.014316991951752574 0.010083549922807576 -0.083311428382903521 -0.023416458619063784 -0.011492033737932714 -0.00188572240018943 0.031104225454136453 0.041896223665130627 -0.00085550246828185119 -0.055738969720181081 0.034067853268408783 -0.10089280432743475 0.015766293516760073 -0.093838282971775142 0.062358861093403065 0.046387733954503296 -0.10104780101430287 -0.10195892075604036 0.050458172051237073 -0.024170180360822104 0.054749929840197824 0.014474912843224115 0.056914269557393198 -0.033222477652169763
leaf_weight=858.28776120161638 10.296652146847917 1245.919212034205 891.63644331798423 793.02211693313438 45.489397427998483 756.98579258355312 138.64158318459522 105.5085131728556 46.282619240693748 1151.1795840089326 59.302378318156116 165.8595267215278 92.56037641945295 62.185348125523888 473.70104142732453 68.660376886837184 39.272484389133751 4.1772524729603893 14.801571505260652 23.027784852776676 5.4589178180322042 128.20350793423131 11.448782024323007 3.2834105291403857 16.827657314483076 41.453781126998365 61.679105840041302 338.93232939357404 26.09945059614256 36.634661274030805
leaf_count=327959 448 9851 129419 11952 10704 1968 6951 6013 9111 132676 5047 4748 1456 1688 20683 5319 1076 160 952 3293 30 1434 377 82 232 1553 728 9603 281 1388
internal_value=-1.11385e-09 0.0308335 -0.0445181 0.0132173 -0.0317585 0.0533164 0.00398552 -0.0220416 -0.0444469 -0.024874 -0.0425553 0.0056824 0.000466386 -0.00255953 0.00410549 -0.0162245 -0.00363659 0.0254044 -0.0430579 -0.062659 -0.0170886 0.0277209 0.0249575 -0.0225232 0.025574 -0.0408075 0.0130935 0.0184555 0.0128822 0.00982227
internal_weight=7716.82 4559.13 3157.69 2556.23 2299.4 2002.91 1561.99 1302.18 997.221 1196.67 950.939 1523.21 894 797.262 535.886 261.376 177.914 96.7376 83.4619 38.7834 15.7556 994.239 866.036 73.0136 20.1111 52.9026 629.205 463.346 401.666 375.567
internal_count=707182 86253 620929 74434 292970 11819 58804 149393 143577 143380 134466 55033 38285 36669 22371 14298 8027 1616 6271 3771 478 15630 14196 2244 314 1930 16748 12000 11272 10991
is_linear=0
shrinkage=0.05


Tree=4
num_leaves=31
num_cat=0
split_feature=2 12 2 2 12 2 1 17 12 2 1 11 1 8 14 9 13 14 14 9 14 13 11 14 9 13 14 9 14 13
split_gain=4044.89 624.635 536.901 439.39 199.708 137.624 90.414 51.1923 47.9403 33.8084 33.5757 32.5118 23.9534 23.1522 42.1089 21.9721 21.9582 46.7558 30.8861 27.7714 21.2229 25.8418 21.5621 26.0871 26.4956 20.9218 23.4976 22.2198 30.5074 44.6688
threshold=0.25777748823165897 1.0000000180025095e-35 0.22376185655593875 0.28530481159687043 1.0000000180025095e-35 0.32087523937225343 0.30787265300750738 1.0000000180025095e-35 1.0000000180025095e-35 0.27593372762203222 0.40296049416065222 1.0000000180025095e-35 0.56689465045928966 2.5000000000000004 862.50000000000011 3.5000000000000004 1.5000000000000002 358.50000000000006 419.50000000000006 4.5000000000000009 127.50000000000001 28.500000000000004 102.78500000000001 632.50000000000011 1.5000000000000002 86.500000000000014 859.50000000000011 3.5000000000000004 821.50000000000011 53.500000000000007
decision_type=2 2 2 2 2 2 2 2 2 2 2 10 2 2 2 2 2 2 2 2 2 2 10 2 2 2 2 2 2 2
left_child=2 3 6 9 7 -5 -1 10 15 11 13 -2 -7 14 16 -8 -4 19 -19 -18 -9 -22 23 -23 -25 26 27 28 29 -12
right_child=1 -3 4 5 -6 12 8 20 -10 -11 25 -13 -14 -15 -16 -17 17 18 -20 -21 21 22 -24 24 -26 -27 -28 -29 -30 -31
leaf_value=-0.077186893268327381 -0.067146412519145132 -0.086353765172862446 -0.040900266679835741 0.035308640137044364 -0.082299271031871943 0.049535829674609982 -0.03596141252226339 -0.097269920762624987 -0.081193463376750527 0.022758066445714206 -0.019163815027848207 0.0072474471004957885 0.063323971001701465 -0.050655363882121024 -0.073714270959858594 -0.058380238356377123 -0.0073070003539754957 -0.083443660550233112 -0.023632208672939421 0.042072657282966316 0.064272468602095498 -0.031356309359402201 0.065103835243314964 -0.0973822033610659 0.03366649810199062 0.0066644818826315684 -0.08035430338391622 -0.0063495808898990057 0.01802011321656501 -0.061145096847067017
leaf_weight=832.76488255534787 14.913212311919777 110.65158310148399 115.32450948480982 1548.0984936760506 138.18892471457366 549.89350219955668 290.11948736733757 4.4243651325814417 109.37592169910204 443.21767243591603 252.54518935258966 964.38126899814233 737.36339914612472 119.56582242844161 42.816495777573436 175.34642017807346 100.09812919539399 24.302390408120118 192.97240141697694 39.792828673205804 21.36053424119018 45.60169278876856 12.673192120622842 4.2415171423926941 42.544945874367841 95.115093500586227 14.960285371635107 280.85557498736307 37.191957989707589 84.584603747469373
leaf_count=307970 1990 26061 8247 15075 37169 2130 76079 230 64799 9757 13199 29817 1423 9567 4298 46946 5770 2552 12535 1270 309 1863 116 236 866 4654 1241 13576 1343 6094
internal_value=1.46476e-09 0.0309288 -0.0439139 0.0339767 -0.0247334 0.0453536 -0.0666585 -0.0195373 -0.0514063 0.0113002 -0.0223324 0.00611454 0.0574339 -0.0308331 -0.0262338 -0.0444068 -0.0219312 -0.0158063 -0.0303222 0.00673934 0.010371 0.014138 0.00394497 -0.0044444 0.021786 -0.0152799 -0.0183946 -0.0169798 -0.0249557 -0.0296968
internal_weight=7445.29 4368.52 3076.77 4257.87 1669.16 2835.36 1407.61 1530.97 574.842 1422.51 1400.13 979.294 1287.26 634.873 515.307 465.466 472.49 357.166 217.275 139.891 130.846 126.422 105.061 92.3882 46.7865 765.253 670.138 655.177 374.322 337.13
internal_count=707182 86253 620929 60192 125135 18628 495794 87966 187824 41564 84346 31807 3553 44239 34672 123025 30374 22127 15087 7040 3620 3390 3081 2965 1102 40107 35453 34212 20636 19293
is_linear=0
shrinkage=0.05


Tree=5
num_leaves=31
num_cat=0
split_feature=2 2 12 1 12 1 1 17 1 12 1 11 11 17 11 11 11 11 1 11 5 13 11 1 17 2 8 13 9 11
split_gain=3597.94 539.628 490.176 399.22 190.77 77.9245 77.66 50.5659 48.844 41.3046 31.362 24.5616 63.7373 22.7421 32.5747 22.4314 33.4079 21.7845 27.9137 27.5362 21.6866 19.7445 19.4621 19.6125 18.8525 18.7876 18.4661 27.1494 19.527 28.0126
threshold=0.25777748823165897 0.22376185655593875 1.0000000180025095e-35 0.50536864995956432 1.0000000180025095e-35 0.45545393228530889 0.30787265300750738 1.0000000180025095e-35 0.54233273863792431 1.0000000180025095e-35 0.40296049416065222 23.430000000000003 23.895000000000003 1.0000000180025095e-35 5.9050000000000011 9.3650000000000002 19.915000000000003 25.995000000000001 0.41421757638454443 29.750000000000004 4.5000000000000009 54.500000000000007 7.995000000000001 0.40646186470985418 1.5000000000000002 0.26234030127525337 2.5000000000000004 88.500000000000014 2.5000000000000004 25.780000000000005
decision_type=2 2 2 2 2 2 2 2 2 2 2 8 8 2 10 10 10 10 2 10 2 2 8 2 2 2 2 2 2 10
left_child=1 6 3 5 7 13 -1 10 11 24 26 -5 -13 14 21 22 -17 18 -18 -19 -14 25 23 -12 -8 -2 27 28 -3 -30
right_child=2 4 -4 8 -6 -7 9 -9 -10 -11 15 12 20 -15 -16 16 17 19 -20 -21 -22 -23 -24 -25 -26 -27 -28 -29 29 -31
leaf_value=-0.074429931489995577 -0.093556351114183672 -0.033969266169670088 -0.081545896898417514 0.045730354767868908 -0.078803104413480818 0.024720282714883537 -0.044822766085388682 0.012820070362383125 0.055684289191809649 -0.077971579279454792 0.021510178321877269 -0.10364189738453991 0.037085176084965664 0.029616343728900076 0.0050959351238617509 0.0036947055049862186 -0.084371857379775123 0.034051944363029427 -0.021423580916185254 -0.019708471881394157 -0.0070510523826840203 -0.09044571319918876 -0.055304637283934005 -0.028921350198343618 0.050274416239895439 0.0026042665595521473 -0.046966089970826977 -0.073043701773111466 -0.023871452355753095 0.0099107106594909806
leaf_weight=837.31181107542943 6.4128032781882238 183.17805565299932 97.126899763941765 523.41711347736418 135.74408239114564 1458.0253166658804 446.28791042312514 130.97270677937195 1113.9123460478149 109.2685392901767 24.909986265469342 9.007782909087835 226.43865495710634 85.66532037127763 667.39465874119196 292.25153557211161 26.796134097734466 28.114425511565059 51.379055534722283 155.89022267144173 31.73193096043542 13.20953067508526 49.340598495909944 85.271606704685837 5.2732151052914551 24.429732356860768 107.55914845084772 26.779323934810236 190.46846648887731 90.531941224006005
leaf_count=307970 581 13360 26061 2893 37169 23705 122381 3620 2843 64799 896 183 1855 1252 23615 12740 2459 824 3168 9264 469 1753 5233 5523 644 1043 9567 3459 13211 4642
internal_value=-6.20934e-10 -0.042163 0.0294902 0.0320829 -0.0221339 0.0178481 -0.0647858 -0.0168046 0.0489384 -0.0503871 -0.0197609 0.0394339 0.0270987 0.00527782 0.00234721 -0.0126842 -0.00793026 -0.0208886 -0.0430004 -0.0114943 0.0316604 -0.0392963 -0.0292067 -0.0175197 -0.0437122 -0.0173895 -0.0282024 -0.0240917 -0.0212676 -0.0129876
internal_weight=7234.1 2977.33 4256.77 4159.65 1579.19 2255.14 1398.14 1443.44 1904.51 560.83 1312.47 790.595 267.178 797.112 711.447 713.954 554.431 262.18 78.1752 184.005 258.171 44.0521 159.522 110.182 451.561 30.8425 598.517 490.958 464.178 281
internal_count=707182 620929 86253 60192 125135 51949 495794 87966 8243 187824 84346 5400 2507 28244 26992 40107 28455 15715 5627 10088 2324 3377 11652 6419 123025 1624 44239 34672 31213 17853
is_linear=0
shrinkage=0.05


Tree=6
num_leaves=31
num_cat=0
split_feature=2 2 2 2 2 2 17 2 11 17 11 14 14 2 11 8 14 14 11 11 8 14 11 11 11 8 11 7 17 11
split_gain=3263 498.67 407.703 78.326 68.9858 62.36 48.1692 34.0828 25.439 23.6319 22.519 21.0698 51.2923 40.5306 22.1941 19.3329 25.0533 18.5782 21.4612 22.6809 35.7743 21.1925 18.6165 17.0692 19.716 16.9275 22.0283 16.5721 17.2748 21.2961
threshold=0.25777748823165897 0.22376185655593875 0.30105428695678715 0.27593372762203222 0.18439949154853821 0.32087523937225343 1.0000000180025095e-35 0.24127355217933658 1.0000000180025095e-35 1.0000000180025095e-35 4.0100000000000007 874.50000000000011 760.00000000000011 0.31197862029075629 6.4750000000000005 2.5000000000000004 862.50000000000011 809.50000000000011 14.945000000000002 15.495000000000003 1.5000000000000002 810.50000000000011 4.8100000000000014 22.995000000000001 6.9750000000000005 1.5000000000000002 4.995000000000001 1.0000000180025095e-35 1.0000000180025095e-35 12.495000000000003
decision_type=2 2 2 2 2 2 2 2 10 2 10 2 2 2 8 2 2 2 8 10 2 2 10 8 10 2 10 2 2 10
left_child=1 4 3 8 -1 11 7 15 -2 17 -9 12 14 23 -4 16 -3 18 25 20 -20 -19 -23 24 -14 26 -5 28 29 -10
right_child=2 6 5 9 -6 -7 -8 10 27 -11 -12 -13 13 -15 -16 -17 -18 21 19 -21 -22 22 -24 -25 -26 -27 -28 -29 -30 -31
leaf_value=-0.071919406875023545 -0.063705136639803914 -0.025314509986460201 0.059356835711198021 -0.098355903603044303 -0.049039650560292615 0.051358525434591365 0.0076225728864832186 -0.057821340274819527 -0.0096587620017286706 0.042486362751347304 -0.014900804592127677 0.05440893618308993 -0.10458424900035029 -0.10595110894195064 0.030141875501897321 -0.051381218796369213 -0.067681553702642144 -0.10316544026139754 -0.094777125139121968 0.019119075811458497 0.0044246220787392682 -0.096233321290323415 0.0097360285923078112 -0.10486943854392733 0.025732939448919235 0.036008528839531206 0.017529393845428832 -0.0069034500039937751 0.031256089182185552 0.011165977471884025
leaf_weight=821.23865229566582 14.307527420460245 477.04694811001536 74.425181704573333 4.2789929111022493 550.16542294702958 1256.3304220214486 133.03755518177059 31.911574758472852 174.71366495487746 121.82046592549887 721.77777699753642 99.813022600254044 3.1822991175577036 10.551827315008266 513.76553904719185 111.46390909794718 37.647584672900848 4.4788285538088521 10.999339309753848 457.67222708661575 52.302754034753889 4.2526147863827637 163.08538148587104 3.2788296835497013 32.996343167033046 322.46201368118636 98.452822022372857 271.98512350791134 69.967698659282178 412.90343136899173
leaf_count=417880 2754 41862 405 211 77914 5478 4992 4563 10501 1340 54194 772 128 387 5910 13060 6464 248 960 9867 2059 414 4995 120 508 5301 2358 13856 1163 16518
internal_value=-1.35944e-09 -0.0409045 0.0282383 0.0133117 -0.0627407 0.0445821 -0.0211104 -0.0238806 0.00245876 0.0215742 -0.0167181 0.0330464 0.0297053 -0.0189075 0.0338385 -0.032502 -0.0284135 0.0192955 0.0220421 0.0152391 -0.0128126 0.00417014 0.007043 0.00436991 0.0142701 0.0303775 0.0127025 0.00347713 0.00777066 0.00497425
internal_weight=7062.32 2884.29 4178.03 2183.68 1371.4 1994.34 1512.89 1379.85 943.877 1239.81 753.689 738.013 638.2 50.0093 588.191 626.158 514.695 1117.98 946.168 520.974 63.3021 171.817 167.338 39.4575 36.1786 425.194 102.732 929.57 657.585 587.617
internal_count=707182 620929 86253 72545 495794 13708 125135 120143 44792 27753 58757 8230 7458 1143 6315 61386 48326 26413 20756 12886 3019 5657 5409 756 636 7870 2569 42038 28182 27019
is_linear=0
shrinkage=0.05


Tree=7
num_leaves=31
num_cat=0
split_feature=1 1 1 1 1 17 1 14 11 1 11 13 13 1 11 11 11 14 11 9 11 1 13 13 14 9 17 11 1 11
split_gain=3020.99 458.556 390.144 104.962 61.3681 43.3535 30.9079 28.3215 28.2453 24.1488 23.3818 22.4456 17.0889 17.0316 16.3786 15.1236 28.8014 21.4609 21.4035 14.3562 14.2984 16.5697 14.1881 21.2839 21.1865 17.5304 13.6615 13.4824 13.421 13.4012
threshold=0.42935977876186376 0.37282626330852514 0.47464659810066229 0.51920416951179515 0.30787265300750738 1.0000000180025095e-35 0.40296049416065222 981.50000000000011 1.0000000180025095e-35 0.44616404175758367 148.99000000000004 8.5000000000000018 17.500000000000004 0.40042935311794287 4.0100000000000007 25.780000000000005 22.960000000000004 825.50000000000011 74.925000000000011 4.5000000000000009 6.4750000000000005 0.56689465045928966 55.500000000000007 61.500000000000007 165.50000000000003 3.5000000000000004 1.5000000000000002 209.84500000000003 0.37791100144386297 4.5200000000000005
decision_type=2 2 2 2 2 2 2 2 10 2 8 2 2 2 10 10 8 2 10 2 8 2 2 2 2 2 2 10 2 10
left_child=1 4 7 -4 -1 6 15 8 11 10 12 -2 -10 19 -8 16 22 18 -17 -7 -5 -22 24 -24 28 -25 -6 -11 -3 -16
right_child=2 5 3 20 26 13 14 -9 9 27 -12 -13 -14 -15 29 17 -18 -19 -20 -21 21 -23 23 25 -26 -27 -28 -29 -30 -31
leaf_value=-0.069808223274294035 0.024163635787547443 -0.085418347278669482 0.027138121810995914 0.060272689965329612 -0.048697521132403297 -0.0079345862890087583 -0.053471953521470807 -0.057672066524970089 -0.015773414015794938 0.011412643840806515 -0.094237639494286499 -0.080996982716475818 0.0052557053659085511 0.018802760569644531 0.054086757780931666 -0.0059053375272674416 -0.072381431857596309 -0.083839802021459409 -0.049621453298834231 -0.09202134782646354 0.039639286494596762 0.050660362994052632 -0.084629814759703714 -0.022424686452305567 -0.010054372709424107 -0.06380215252204624 0.036334789722001361 0.051015664845446833 -0.03341269264902693 -0.015439470994926244
leaf_weight=806.99586499028374 7.3844091253122341 13.957658373634329 1227.9400692692725 173.24635747401044 527.42089960339945 37.690211640903726 28.410326944198459 17.631939262384549 130.20643162156921 779.42854074481875 6.6937112582381806 16.218971270835027 374.38598522177199 90.373488332494162 7.0025859101442611 136.37744960584678 49.600707150995731 12.076382038067093 35.232317277463153 5.8660403323592609 698.01072413497604 666.86758542293683 26.767117728944868 82.26395176583901 123.97053778159898 37.161142333759926 4.7662568010855457 22.100051597924903 111.57663397207216 676.33432322833687
leaf_count=309600 654 2600 27710 865 104820 2692 6087 2538 10694 37434 793 4599 24170 3439 285 13590 9835 2756 5056 622 7726 2505 4783 12582 13943 7756 384 363 15147 71154
internal_value=-4.43643e-10 -0.0399355 0.027274 0.038039 -0.0611163 -0.0207005 -0.0234101 0.00528321 0.0061138 0.00708847 -0.00140222 -0.0480971 -0.000170707 0.00642437 -0.0162735 -0.0314858 -0.0364653 -0.0194142 -0.0148805 -0.0192592 0.0467416 0.0450241 -0.0319632 -0.044332 -0.024716 -0.0353 -0.047936 0.0125046 -0.039195 -0.014727
internal_weight=6933.96 2813.84 4120.11 2766.06 1339.18 1474.66 1340.73 1354.05 1336.42 1312.81 511.286 23.6034 504.592 133.93 711.747 628.984 445.298 183.686 171.61 43.5563 1538.12 1364.88 395.697 146.192 249.505 119.425 532.187 801.529 125.534 683.337
internal_count=707182 587131 120051 38806 414804 172327 165574 81245 78707 73454 35657 5253 34864 6753 77526 88048 66646 21402 18646 3314 11096 10231 56811 25121 31690 20338 105204 37797 17747 71439
is_linear=0
shrinkage=0.05


Tree=8
num_leaves=31
num_cat=0
split_feature=2 12 2 2 12 2 1 12 17 2 11 11 11 1 11 13 17 7 1 5 11 11 17 11 11 5 11 17 13 13
split_gain=2787.71 471.483 435.265 305.33 179.83 63.6435 56.6557 35.1083 28.5867 28.5796 28.5797 22.9721 21.859 18.5616 16.4696 30.7612 15.6932 15.0516 19.2876 14.7952 13.6696 13.6374 13.6898 13.64 13.294 12.603 12.4741 13.5985 12.4312 12.9836
threshold=0.25777748823165897 1.0000000180025095e-35 0.22376185655593875 0.29030622839927678 1.0000000180025095e-35 0.32087523937225343 0.30787265300750738 1.0000000180025095e-35 1.0000000180025095e-35 0.26779066622257236 148.99000000000004 7.8650000000000011 3.7750000000000004 0.39262515306472784 1.0000000180025095e-35 8.5000000000000018 1.0000000180025095e-35 1.0000000180025095e-35 0.44343732297420507 3.5000000000000004 150.91000000000005 199.45000000000002 1.5000000000000002 188.93500000000003 164.80500000000004 4.5000000000000009 102.78500000000001 1.5000000000000002 102.50000000000001 99.500000000000014
decision_type=2 2 2 2 2 2 2 2 2 2 8 8 10 2 10 2 2 2 2 2 8 8 2 10 8 2 10 2 2 2
left_child=2 3 6 9 8 11 -1 21 12 10 16 -5 -4 -14 15 -11 28 -18 -19 -16 -7 22 23 -8 -22 -21 27 -10 29 -2
right_child=1 -3 4 5 -6 20 7 -9 26 14 -12 -13 13 -15 19 -17 17 18 -20 25 24 -23 -24 -25 -26 -27 -28 -29 -30 -31
leaf_value=-0.067996957127714766 -0.00080408843392326906 -0.077478449984094921 -0.051527786470288252 0.045778287753770103 -0.073407479846289397 0.050081214096391491 -0.039962554960480651 -0.072018284193742232 0.0080016714588606094 0.045773516288339727 -0.08315672711033413 0.028534891369965398 -0.02563406600419579 -0.011219957577882486 0.022888279332276773 -0.083663259168964887 0.039322459792084048 -0.097487921268103475 0.044785108620341268 0.0039526197174008957 -0.037334931750674351 -0.0791653571931656 0.045436624601295376 0.06048420246573101 0.03648866033549527 0.020134779631732998 0.052861368739329832 -0.057170590372756819 -0.08747609004020325 0.049922859923304974
leaf_weight=792.13215647288598 394.84654944599606 106.36299873294774 42.757819210964954 242.54692013654858 141.18658739014063 1096.776378294453 384.60984594852198 109.18376844935119 104.2189947826555 7.8503863713704076 9.7425257987342757 948.3933554107789 305.89394344011089 827.65247373428429 541.33401530748233 11.052731785515787 47.791398265399039 4.9809202942997199 4.5658099241554737 280.1451345202513 6.4229827485978594 21.244477015687153 4.8512257696129373 3.4096879910212001 120.6214049172122 210.90332566946745 14.109351537656037 8.6698245205916447 4.0259593555238089 13.030472031794487
leaf_count=307970 16625 26061 5588 1393 37169 2954 113271 64799 3027 189 1650 9985 25721 53037 11034 1745 505 256 48 7723 27 8968 577 209 572 4670 133 460 492 324
internal_value=-5.55662e-10 0.0264012 -0.0387554 0.029202 -0.0198069 0.0402752 -0.059563 -0.0467962 -0.0140003 0.0117283 0.00160521 0.0320467 -0.0164335 -0.0151097 0.0163406 -0.0299087 0.00336507 0.0278728 -0.0294446 0.0171874 0.0482827 -0.0401462 -0.0380363 -0.0390799 0.0327564 0.0109028 0.0085364 0.00299646 -4.64874e-05 0.000816488
internal_weight=6811.31 4051.39 2759.92 3945.03 1444.49 2414.76 1315.43 523.299 1303.3 1530.27 478.984 1190.94 1176.3 1133.55 1051.29 18.9031 469.241 57.3381 9.54673 1032.38 1223.82 414.115 392.871 388.02 127.044 491.048 126.998 112.889 411.903 407.877
internal_count=707182 86253 620929 60192 125135 14931 495794 187824 87966 45261 19900 11378 84346 78758 25361 1934 18250 809 304 23427 3553 123025 114057 113480 599 12393 3620 3487 17441 16949
is_linear=0
shrinkage=0.05


Tree=9
num_leaves=31
num_cat=0
split_feature=2 2 1 1 1 17 2 1 11 11 7 11 11 11 11 11 17 14 13 14 2 1 11 11 11 11 14 1 17 1
split_gain=2571.02 401.849 319.738 63.5401 53.3364 34.9623 26.1318 25.3162 16.6003 22.7264 15.2849 14.6913 19.8909 15.2197 14.66 14.3469 14.2249 15.0942 14.4058 20.6358 29.2987 15.4615 15.4561 25.6928 20.1154 19.6798 19.54 18.7056 14.2154 14.1956
threshold=0.25777748823165897 0.22376185655593875 0.50536864995956432 0.46105320751667028 0.3233629316091538 1.0000000180025095e-35 0.32087523937225343 0.40296049416065222 188.93500000000003 158.46000000000004 1.0000000180025095e-35 9.3650000000000002 15.005000000000001 7.995000000000001 7.8650000000000011 7.9600000000000009 1.0000000180025095e-35 981.50000000000011 99.500000000000014 895.50000000000011 0.26896247863769535 0.45218144357204443 12.370000000000003 7.995000000000001 9.5150000000000023 11.830000000000002 559.50000000000011 0.44480073451995855 1.5000000000000002 0.40646186470985418
decision_type=2 2 2 2 2 2 2 2 10 8 2 10 10 8 8 8 2 2 2 2 2 2 10 8 10 8 2 2 2 2
left_child=1 4 3 16 -1 7 14 -3 9 -5 -11 13 -13 29 -4 -16 17 18 19 22 -21 -22 23 26 -25 -26 -2 -28 -6 -9
right_child=2 5 6 8 28 -7 -8 11 -10 10 -12 12 -14 -15 15 -17 -18 -19 -20 20 21 -23 -24 24 25 -27 27 -29 -30 -31
leaf_value=-0.065451401372949622 0.01821846041036573 -0.029381448401599015 0.047751140867636321 0.020157685364397875 -0.045097056554766431 0.0052534306108498463 0.044963482097445856 0.013902662167622227 0.055732788010538707 -0.0048372170722262861 -0.089692098938319406 0.00084180237574578887 -0.019029476949684737 -0.052788574554794646 -0.10924260085846803 0.028976765025014381 0.021088262285983567 -0.063350797793508148 0.045096313690195761 -0.088094018418000491 0.044264003687900663 -0.050691960221643573 0.0066804013553988743 -0.049406398622191282 -0.00072235687665389483 -0.090812214367837513 -0.086611428876309071 0.0014191068912481582 0.030676395884213364 -0.028746592923133613
leaf_weight=836.25693180738017 96.515958407660946 598.19744637751137 123.03793844953179 1158.3066058887634 438.95249061693903 130.97960911924019 1229.0901925330982 25.638775005936623 31.366771952714771 33.210078415228054 6.3163437632611013 204.96937796886778 326.59602720919065 46.549912206595764 1.8846655143424857 487.66364842094481 92.328773012734018 9.182022385299204 18.204644808429293 15.69725813064724 10.543118126224728 7.2244599004043257 521.40847466595005 48.875206821132451 70.788780361879617 6.6296297777444115 9.4756596144288796 16.617140358546749 6.2781541561707845 81.627704779035412
leaf_count=327168 3994 63648 986 24924 167763 4992 5038 1294 221 1656 704 13211 27056 7114 60 5735 2023 1332 546 2097 392 624 22918 5790 4129 718 1336 1030 863 7820
internal_value=2.63523e-10 -0.0377273 0.0254645 0.01238 -0.0580084 -0.0193542 0.0407587 -0.0218652 0.0198257 0.0188854 -0.0183971 -0.015305 -0.0113672 -0.0289135 0.0323224 0.0284446 0.00246942 0.000401167 0.00111332 0.000117148 -0.0383201 0.00565404 0.00178699 -0.00846388 -0.0242921 -0.00843709 0.00784 -0.0305494 -0.0440286 -0.0185526
internal_weight=6690.41 2696.05 3994.37 2152.69 1281.49 1414.56 1841.68 1283.58 1229.2 1197.83 39.5264 685.382 531.565 153.816 612.586 489.548 923.491 831.162 821.98 803.776 33.4648 17.7676 770.311 248.902 126.294 77.4184 122.609 26.0928 445.231 107.266
internal_count=707182 620929 86253 74434 495794 125135 11819 120143 27505 27284 2360 56495 40267 16228 6781 5795 46929 44906 43574 43028 3113 1016 39915 16997 10637 4847 6360 2366 168626 9114
is_linear=0
shrinkage=0.05


Tree=10
num_leaves=31
num_cat=0
split_feature=2 12 2 2 12 2 1 12 1 11 2 11 11 11 11 11 11 11 11 1 5 11 2 16 1 2 2 8 11 11
split_gain=2368.59 415.297 374.834 241.472 160.61 62.6266 49.3737 31.3965 25.3803 15.0984 11.8312 11.368 11.2249 10.6343 20.7206 20.6743 28.6553 20.1857 17.5422 17.3763 18.1952 14.3448 12.8967 12.3701 10.9663 10.2664 15.9683 10.1278 12.3856 25.4605
threshold=0.25777748823165897 1.0000000180025095e-35 0.22376185655593875 0.28530481159687043 1.0000000180025095e-35 0.32087523937225343 0.30787265300750738 1.0000000180025095e-35 0.40296049416065222 1.0000000180025095e-35 0.26779066622257236 148.99000000000004 3.7750000000000004 22.995000000000001 58.100000000000009 39.985000000000007 41.240000000000009 25.780000000000005 21.630000000000006 0.49980585277080541 4.5000000000000009 20.385000000000002 0.30105428695678715 1.0000000180025095e-35 0.52863508462905895 0.29343500733375555 0.31197862029075629 2.5000000000000004 8.5550000000000015 13.995000000000003
decision_type=2 2 2 2 2 2 2 2 2 10 2 10 10 8 10 10 10 10 10 2 2 10 2 2 2 2 2 2 10 10
left_child=2 3 6 9 8 13 -1 12 -4 -2 11 -11 -8 18 15 17 23 19 21 -15 24 -5 -22 25 -21 -17 -27 -10 -29 -30
right_child=1 -3 4 5 -6 -7 7 -9 27 10 -12 -13 -14 14 -16 16 -18 -19 -20 20 22 -23 -24 -25 -26 26 -28 28 29 -31
leaf_value=-0.064855953161658694 -0.036840629573587316 -0.07451211664349669 -0.021233846101893647 0.030946579992240625 -0.070367612488887815 0.044010180197606816 -0.075557849938911084 -0.068920204863776646 -0.0040831481147333842 0.0038675859111718669 0.013347535060667732 -0.084807876527478399 -0.036139868859283081 -0.018672855899965646 0.038002205903403988 0.019724805846598241 0.017997587044509197 0.03524237514468416 0.062654068242494546 0.032854556689115175 0.04103574544466769 -0.020348648857208849 -0.10126664617920061 -0.1032368637526932 -0.040714926452807165 -0.10437536022575924 0.00086631030114843813 -0.05336038189523723 0.017291317611860962 -0.0332961528239046
leaf_weight=745.2218020753935 17.816921207471751 103.25210089655593 558.5432241006929 862.23496514337603 136.7495410485426 1213.0730718399864 18.976968292845413 104.14416691788938 568.98672992963111 452.56016906490549 759.13049158884678 3.6433462330605826 374.04351578000933 41.910666669486091 150.11568994331174 7.5054902439005735 42.549856484401971 139.26317378808744 43.53413253556937 72.447908927686512 2.3580466741695991 13.848460569977759 4.9023174159228802 7.1994341691024593 5.4460391500033429 7.2958053136244398 7.1234887600876391 22.532857944490388 42.344875800423324 60.279563237447292
leaf_count=307970 2810 26061 46141 8028 37169 3553 8895 64799 33146 18250 20047 457 114130 1529 1134 166 621 1359 205 833 19 276 216 243 113 249 84 2155 1856 4668
internal_value=-1.36441e-10 0.0244477 -0.0367596 0.0270989 -0.0189165 0.0356839 -0.0567146 -0.0445112 -0.0132998 0.00885331 0.00952319 0.0031594 -0.0380432 0.0285091 0.0225441 0.0156788 -0.00815831 0.0220938 0.0316751 0.007683 0.0206546 0.0301357 -0.0550492 -0.0463715 0.0277109 -0.0276986 -0.0523834 -0.00691571 -0.019793 -0.0124228
internal_weight=6589.03 3957.21 2631.82 3853.96 1389.44 2620.81 1242.39 497.165 1252.69 1233.15 1215.33 456.204 393.02 1407.74 488.118 338.002 71.6741 266.328 919.618 127.065 85.1543 876.083 7.26036 29.1242 77.8939 21.9248 14.4193 694.144 125.157 102.624
internal_count=707182 86253 620929 60192 125135 18628 495794 187824 87966 41564 38754 18707 123025 15075 6566 5432 1363 4069 8509 2710 1181 8304 235 742 946 499 333 41825 8679 6524
is_linear=0
shrinkage=0.05


Tree=11
num_leaves=31
num_cat=0
split_feature=2 2 2 2 1 17 17 1 1 13 8 11 11 17 11 13 13 13 11 11 1 13 13 11 11 9 1 13 13 9
split_gain=2206.33 344.611 277.146 48.1758 45.0172 30.4495 28.3598 24.8967 22.2446 19.6512 20.0014 17.8446 14.1602 13.3993 13.2871 12.7635 38.2332 31.8178 19.2136 23.2925 17.9734 12.717 12.4604 12.4487 21.0085 17.0811 15.3966 12.3384 61.0956 26.4687
threshold=0.25777748823165897 0.22376185655593875 0.29030622839927678 0.31197862029075629 0.30787265300750738 1.0000000180025095e-35 1.0000000180025095e-35 0.44760693609714514 0.40296049416065222 41.500000000000007 1.5000000000000002 148.99000000000004 6.6450000000000005 1.5000000000000002 5.995000000000001 37.500000000000007 35.500000000000007 36.500000000000007 12.770000000000001 8.0400000000000009 0.51920416951179515 9.5000000000000018 1.0000000180025095e-35 39.985000000000007 44.820000000000007 3.5000000000000004 0.41334791481494909 32.500000000000007 36.500000000000007 2.5000000000000004
decision_type=2 2 2 2 2 2 2 2 2 2 2 8 10 2 8 2 2 2 10 8 2 2 2 8 8 2 2 2 2 2
left_child=1 4 6 15 -1 8 7 11 -3 10 -9 -2 14 -6 -11 16 -4 -18 19 -19 -17 -8 -12 -10 -25 26 -26 -5 29 -29
right_child=2 5 3 27 13 -7 21 9 23 12 22 -13 -14 -15 -16 20 17 18 -20 -21 -22 -23 -24 24 25 -27 -28 28 -30 -31
leaf_value=-0.063476058859241999 -0.0035033829731124367 -0.028439466808966037 0.023642865586091452 0.045231128032420673 -0.04475087566378079 0.0047300908709957904 -0.097063745845378316 -0.0022326558190920317 -0.01196723543381715 -0.011715032144043716 0.012384190288417286 -0.073702424004532849 0.0045481555224840811 0.025209935439822286 -0.081297006815835238 0.030471814687576395 -0.10059601960501258 0.01603996407138605 0.045553093496837282 -0.10543797160186362 -0.10717751673011817 0.028373467839004098 0.030639651260259582 -0.085355938111485702 -0.081976489973537042 0.00028501604316726081 -0.022186930258971491 0.0075933690030886751 0.038765804253719338 -0.079653023833917466
leaf_weight=719.38018316950183 444.39374104968738 570.05311446666019 307.97767236805521 619.22029951319564 476.41128380259033 124.74707628635224 2.0464692963287225 112.50468240061309 557.493952069839 33.173675330705009 181.03275144740473 9.2410878865048272 379.72757557965815 6.9437707846518597 8.6497166705667023 558.01188646315131 11.045011216774581 9.0422053635120445 12.585342631442471 7.0015023475280023 2.3816189663484684 159.57282492693048 193.25896458735224 15.023269530618562 16.288247779826634 45.531930449185893 31.767977421521209 21.486731400247663 822.00508062716108 14.600069060223175
leaf_count=307970 26542 63648 4625 2736 186922 4992 115 4745 45155 1661 5542 2260 14621 902 1479 7843 628 226 162 300 96 2761 4373 1882 2395 3652 3411 232 4988 318
internal_value=-2.42395e-10 -0.0360469 0.0236409 0.0342812 -0.0555469 -0.0188132 0.00698241 0.00463252 -0.0211891 0.00940981 0.0162535 -0.00493342 0.0015069 -0.0437458 -0.0261056 0.0252178 0.0176916 -0.0285065 -0.000694618 -0.0369732 0.0298868 0.0267851 0.0218101 -0.0149843 -0.0304704 -0.0216599 -0.0424521 0.0398521 0.0359704 -0.0277049
internal_weight=6472.6 2563.64 3908.96 2385.36 1202.74 1360.91 1523.6 1361.98 1236.16 908.347 486.796 453.635 421.551 483.355 41.8234 908.045 347.652 39.6741 28.6291 16.0437 560.394 161.619 374.292 666.105 108.611 93.5882 48.0562 1477.31 858.092 36.0868
internal_count=707182 620929 86253 22154 495794 125135 64099 61223 120143 32421 14660 28802 17761 187824 3140 13880 5941 1316 688 526 7939 2876 9915 56495 11340 9458 5806 8274 5538 550
is_linear=0
shrinkage=0.05


Tree=12
num_leaves=31
num_cat=0
split_feature=2 2 2 2 2 17 2 17 14 11 11 11 11 14 14 14 11 11 11 14 14 2 9 14 2 14 14 14 11 17
split_gain=2054.35 322.461 268.501 55.2065 42.1266 27.4894 21.044 18.2201 23.2908 15.5628 22.5917 15.2172 21.9449 20.6128 14.5056 17.0783 13.0601 39.1621 12.8939 12.739 43.7445 14.7633 13.47 12.4932 15.2979 26.0257 14.4138 19.9997 13.6738 12.2643
threshold=0.25777748823165897 0.22376185655593875 0.28530481159687043 0.31197862029075629 0.18260380625724795 1.0000000180025095e-35 0.23552744686603547 1.0000000180025095e-35 981.50000000000011 9.3650000000000002 7.995000000000001 6.5150000000000006 6.8750000000000009 559.50000000000011 490.50000000000006 267.50000000000006 39.985000000000007 41.240000000000009 102.78500000000001 673.50000000000011 559.50000000000011 0.25609764754772191 4.5000000000000009 957.50000000000011 0.26896247863769535 895.50000000000011 830.50000000000011 809.50000000000011 10.505000000000001 1.5000000000000002
decision_type=2 2 2 2 2 2 2 2 2 10 8 10 10 2 2 2 8 8 10 2 2 2 2 2 2 2 2 2 10 2
left_child=1 4 7 -4 -1 6 -3 8 11 10 -8 13 -13 14 15 -2 -5 -18 -7 20 22 -21 -11 24 25 26 27 -14 -28 -6
right_child=2 5 3 16 29 18 9 -9 -10 19 -12 12 23 -15 -16 -17 17 -19 -20 21 -22 -23 -24 -25 -26 -27 28 -29 -30 -31
leaf_value=-0.062418039918167648 -0.00035640315555571207 -0.031276889229119829 0.023754431442472981 0.040978243554011785 -0.044117289726992408 -0.0017819211931087695 -0.017638340061018162 0.021635652952330036 -0.068218676424708052 -0.017748375914170261 -0.053442134520384314 0.066483617440513648 -0.004409629234217032 -0.052377595538792281 0.046766098104023303 -0.069527056434498899 -0.020130929373669181 0.035606153965432923 0.049500504703037178 -0.00076557211672500798 -0.066675545422528348 -0.066508429170805503 0.0043287913911436689 0.040270426233923816 0.0079576098996510906 -0.082282742014649343 -0.083810157469356883 -0.089800491090683651 0.030757123992645997 0.022566593003561557
leaf_weight=684.06763827789109 54.114566538017243 343.36162209295435 1141.9506223120843 1132.6565607943339 478.14916519459803 110.25795607606415 143.24827770818956 130.4549279945204 11.718695285497231 309.58747613290325 63.628670897334814 14.085298554738982 336.51794399356004 27.819995800149627 12.653156750602646 10.685749746393411 35.230173478135839 298.84812424541451 13.790111821843309 218.26732843840728 41.647908176470082 8.8870512038702127 88.939521965454333 22.747667818563059 582.5674676198978 10.536823066417126 2.7732376131461924 6.9997284400742492 42.7805973184295 6.9960111603140822
leaf_count=415002 3480 39797 19333 5830 80495 4821 13171 2609 1733 26779 10067 227 19092 4107 258 1086 482 1962 171 17607 5165 1199 6358 707 20976 1724 421 897 1329 297
internal_value=-3.76153e-10 -0.0352314 0.0228275 0.0319978 -0.0544254 -0.0185038 -0.0207883 0.00393826 0.00190594 -0.0166687 -0.0286504 0.00263687 0.00450657 -0.0154611 -0.00220128 -0.0117628 0.0384159 0.0297284 0.00391902 -0.0129542 -0.0179169 -0.00333766 -0.0128214 0.00363788 0.00278945 -0.00474493 -0.00264506 -0.00614961 0.0237825 -0.0431557
internal_weight=6385.97 2510.83 3875.14 2608.69 1169.21 1341.62 1217.57 1266.46 1136 874.206 206.877 1124.28 1019.01 105.273 77.4535 64.8003 1466.73 334.078 124.048 667.329 440.175 227.154 398.527 1004.92 982.176 399.608 389.072 343.518 45.5538 485.145
internal_count=707182 620929 86253 27607 495794 125135 120143 58646 56037 80346 23238 54304 45373 8931 4824 4566 8274 2444 4992 57108 38302 18806 33137 45146 44439 23463 21739 19989 1750 80792
is_linear=0
shrinkage=0.05


Tree=13
num_leaves=31
num_cat=0
split_feature=2 12 2 2 12 2 2 12 2 17 17 8 14 17 14 13 14 14 14 14 13 14 14 17 2 2 9 14 13 9
split_gain=1915.16 382.82 307.573 205.182 142.913 39.5782 38.6121 27.366 23.1647 16.1413 15.8938 13.6062 14.5896 13.2952 12.9435 12.7319 22.5914 19.1345 14.4313 12.9001 30.7801 11.8365 18.4763 14.7818 14.2924 11.6784 17.2392 14.9883 13.6154 10.3402
threshold=0.25777748823165897 1.0000000180025095e-35 0.22376185655593875 0.28759835958480839 1.0000000180025095e-35 0.18260380625724795 0.31197862029075629 1.0000000180025095e-35 0.24127355217933658 1.0000000180025095e-35 1.0000000180025095e-35 2.5000000000000004 913.50000000000011 1.5000000000000002 981.50000000000011 2.5000000000000004 359.50000000000006 419.50000000000006 549.50000000000011 279.50000000000006 35.500000000000007 734.00000000000011 746.00000000000011 1.5000000000000002 0.23263505101203921 0.27298766970634464 4.5000000000000009 559.50000000000011 99.500000000000014 3.5000000000000004
decision_type=2 2 2 2 2 2 2 2 2 2 2 2 2 2 2 2 2 2 2 2 2 2 2 2 2 2 2 2 2 2
left_child=2 3 5 9 8 -1 -5 29 11 14 -10 12 15 -12 25 -4 19 -18 -19 20 -17 23 -23 -20 -24 28 27 -27 -2 -7
right_child=1 -3 4 6 -6 7 -8 -9 10 -11 13 -13 -14 -15 -16 16 17 18 21 -21 -22 22 24 -25 -26 26 -28 -29 -30 -31
leaf_value=-0.061370028813325289 0.0010253140760317771 -0.072207456483729365 -0.032354100962536429 0.025705025285600681 -0.067224115332820661 -0.029820383424100656 0.038503580735297353 -0.065422986555803933 -0.009226384987474261 0.024787719932602315 0.019653438268135603 -0.037822648478168436 -0.065820138004687376 -0.086993460853264593 -0.044575268245605267 0.010913199771858499 -0.070517576380680735 0.0088649311587307347 -0.046605491544509041 0.038322911809794427 -0.064577626876218847 0.081900253195941519 -0.045533289138544791 0.049352672814195607 0.0011001952139151926 0.022196233264626095 -0.0077388969219686805 0.0027646635339687491 0.045705636048685702 -0.047056164974765773
leaf_weight=661.84463901206618 570.86683165968861 104.708106991573 83.668065411620773 996.59886114590336 132.97378409688827 235.408859082032 1441.9740044153295 101.91681130084908 610.57611147593707 138.53283247083891 71.186977798352018 93.952510154107586 14.627561931265516 3.0475022918544701 12.164850899484007 80.066901520127431 17.663518474437296 44.128533065551892 58.36918678402435 25.26635027420707 16.241805948666297 5.0442066760733715 27.077000367920846 4.3096212605014435 41.787265661172569 326.19133682642132 88.825921541079879 142.6309245188022 17.575435422826558 138.04585185961332
leaf_count=415002 25466 26061 8022 11417 37169 29366 5418 32553 41509 1959 1556 9768 2299 225 1396 4191 2483 2386 5631 1072 1963 37 3209 65 3550 6541 3012 4694 289 18873
internal_value=-9.63759e-10 0.0220844 -0.0343731 0.0247275 -0.0180486 -0.0534648 0.0332731 -0.0424586 -0.0125858 0.00865786 -0.00657036 -0.0206285 -0.0167661 0.0152753 0.00672865 -0.0149883 -0.0104472 -0.0208481 -0.0159933 0.00652444 -0.00181781 -0.0240245 -0.0104698 -0.0400077 -0.0172358 0.0072732 0.0124579 0.0162845 0.00235981 -0.0361915
internal_weight=6307.27 3840.07 2467.2 3735.36 1329.99 1137.22 2438.57 475.372 1197.01 1296.79 684.811 512.203 418.25 74.2345 1158.26 403.622 319.954 198.379 180.716 121.575 96.3087 136.587 73.9085 62.6788 68.8643 1146.09 557.648 468.822 588.442 373.455
internal_count=707182 86253 620929 60192 125135 495794 16835 80792 87966 43357 43290 44676 34908 1781 41398 32609 24587 17361 14878 7226 6154 12492 6796 5696 6759 40002 14247 11235 25755 48239
is_linear=0
shrinkage=0.05


Tree=14
num_leaves=31
num_cat=0
split_feature=12 17 14 14 14 11 14 11 11 11 11 11 11 11 11 8 11 14 14 11 14 14 14 14 14 14 11 14 14 11
split_gain=1172.1 85.9937 26.257 81.2963 51.8326 42.6323 39.2983 22.2266 19.7341 14.2103 14.0988 42.1696 24.9486 13.938 17.0234 35.8703 35.7449 23.8904 19.2401 19.2083 19.0913 39.0174 38.5089 28.5266 21.468 19.979 19.8402 16.6098 20.1091 14.0896
threshold=1.0000000180025095e-35 1.0000000180025095e-35 223.50000000000003 269.50000000000006 255.00000000000003 1.0000000180025095e-35 72.500000000000014 180.14500000000004 4.1900000000000004 43.875000000000007 39.985000000000007 41.240000000000009 49.960000000000008 49.960000000000008 39.985000000000007 2.5000000000000004 40.460000000000008 710.50000000000011 557.00000000000011 44.705000000000005 768.00000000000011 874.50000000000011 633.50000000000011 612.50000000000011 887.50000000000011 653.50000000000011 5.9050000000000011 923.50000000000011 976.00000000000011 8.9950000000000028
decision_type=2 2 2 2 2 10 2 10 10 10 10 10 10 10 10 2 10 2 2 10 2 2 2 2 2 2 10 2 2 10
left_child=1 2 6 4 -4 -5 8 -6 -1 -3 -10 -12 -13 14 20 16 17 18 -16 -18 22 26 23 -7 -23 -24 -22 -26 -29 -25
right_child=-2 9 3 5 7 13 -8 -9 10 -11 11 12 -14 -15 15 -17 19 -19 -20 -21 21 24 25 29 27 -27 -28 28 -30 -31
leaf_value=0.030409313110847044 -0.06412844412191164 0.022050256367733223 0.0049511851164698107 -0.030393027707652582 -0.044025582405335675 0.0077606739379975642 0.02368083380420849 0.078398414823164383 0.00709930499153371 0.041832159880356663 -0.051695633417744281 0.05473529371683955 -0.0026377883449359278 0.01610827463561491 -0.023904602311631482 -0.077980500067464598 0.050714117328593655 0.058004898448147039 -0.095480773996100554 4.8403862980119999e-05 -0.048084066173687247 0.044229961063251874 0.05907621522333642 -0.070685704073823921 -0.003291571406177573 0.020934128038932919 -0.0064890276801432938 0.031027165112255645 0.0014395916592083854 -0.014040708869936783
leaf_weight=79.642107695457526 639.19236631400418 429.30400197999552 96.268823687860277 82.950318439805415 161.28790959250182 994.14443967083935 408.43064933002461 3.7947264034301034 1178.1128565015388 115.12974002573173 41.992390787811019 21.163636074983515 181.01809368142858 302.83877197140828 23.359704076545313 17.932743779267184 27.549898437457159 5.5712640776764593 15.698377720778806 58.27972192253219 30.45895148802083 44.016378903063014 40.573925567674451 13.216052707284687 192.64675069920486 223.18675611226354 487.671216334973 117.88021048170049 111.978651700716 64.820333958487026
leaf_count=5031 310436 10491 7366 11679 20121 74933 24164 73 81912 1712 3944 911 11392 22274 1863 1837 1741 291 1468 5344 2838 1426 1298 890 19528 15288 44020 7254 11070 4587
internal_value=4.52313e-10 0.00735793 0.00531346 0.00248395 -0.0242074 0.00492752 0.00992887 -0.0412114 0.00618919 0.0262335 0.00483297 -0.00610185 0.00336781 0.00598453 0.00474278 -0.0116755 -0.00256132 -0.0388564 -0.0526728 0.0163113 0.00579266 0.000510152 0.00968612 0.00547568 0.0109993 0.0268015 -0.00893425 0.00753737 0.0166132 -0.023634
internal_weight=6210.11 5570.92 5026.49 3116.13 261.351 2854.77 1910.36 165.083 1501.93 544.434 1422.29 244.174 202.182 2771.82 2468.99 148.392 130.459 44.6293 39.0581 85.8296 2320.59 984.652 1335.94 1072.18 466.522 263.761 518.13 422.506 229.859 78.0364
internal_count=707182 396746 384543 257189 27560 229629 127354 20194 103190 12203 98159 16247 12303 217950 195676 12544 10707 3622 3331 7085 183132 86136 96996 80410 39278 16586 46858 37852 18324 5477
is_linear=0
shrinkage=0.05


Tree=15
num_leaves=31
num_cat=0
split_feature=1 12 1 1 12 1 1 1 12 2 13 13 11 13 5 9 13 11 1 1 9 13 13 11 16 5 13 13 13 2
split_gain=1754 298.042 282.252 210.217 118.533 45.0614 34.8133 20.3296 19.0493 18.4075 13.1737 19.5745 14.1621 25.4204 20.4861 13.5581 13.3491 16.2458 13.1965 27.4892 13.8139 11.9702 18.472 26.5664 15.1682 17.6912 12.7245 11.6956 33.6579 24.2903
threshold=0.42935977876186376 1.0000000180025095e-35 0.36968240141868597 0.50536864995956432 1.0000000180025095e-35 0.47464659810066229 0.3233629316091538 0.40296049416065222 1.0000000180025095e-35 0.33629363179206856 87.500000000000014 77.500000000000014 3.4950000000000006 35.500000000000007 2.5000000000000004 3.5000000000000004 62.500000000000007 7.9600000000000009 0.54233273863792431 0.51163780689239513 2.5000000000000004 1.0000000180025095e-35 28.500000000000004 6.205000000000001 1.0000000180025095e-35 2.5000000000000004 3.5000000000000004 65.500000000000014 53.500000000000007 0.25609764754772191
decision_type=2 2 2 2 2 2 2 2 2 2 2 2 10 2 2 2 2 10 2 2 2 2 2 8 2 2 2 2 2 2
left_child=2 3 6 5 7 -2 -1 21 -8 10 11 12 13 -5 15 -15 17 -14 19 -13 -21 -4 23 -23 25 -25 -27 28 -9 -29
right_child=1 -3 4 9 -6 -7 8 27 -10 -11 -12 18 16 14 -16 -17 -18 -19 -20 20 -22 22 -24 24 -26 26 -28 29 -30 -31
leaf_value=-0.059029761490640188 0.00594196499034282 -0.068320633560360541 -0.034993867463600996 0.04494146221223199 -0.064674052274528479 0.021348157679305965 -0.034472966595563231 -0.006782570105623823 -0.063945235727631042 0.041872487031213955 0.047816073126038423 0.031460130861212389 0.046996942692102771 0.03698153186032159 -0.052000008596024189 -0.10383721475242132 0.052403442422000485 0.027302490372736788 0.028938238508701999 -0.11254366835868557 -0.026016055150861896 -0.081114954021176466 -0.021518863439130127 0.026998723204740466 0.038521487665454969 0.088078722033946594 -0.052528327303329347 0.0047172424432807124 -0.047365756118895791 -0.080623087945376509
leaf_weight=703.34824355278397 1172.3867046517553 90.80438265146222 112.45989438728429 29.044215202797204 124.21210138208698 797.48063109978102 294.93914747959934 371.25383716961369 67.345861073175911 759.32975012622774 109.90629245806485 19.795860355719924 131.86321026878431 15.84719868330285 19.989359204191715 1.9159633060917265 85.394320223480463 508.52765214140527 34.292769158259034 6.15939469682053 18.367990400642157 8.1143267843872291 369.57860280672321 19.409376111347228 34.28471184708178 1.7654566620476568 18.160715966718271 224.17144589475356 59.242535076686181 8.6601632076781225
leaf_count=328916 58048 34993 16144 182 52995 15493 49089 31025 28856 1692 792 262 626 315 500 208 330 5501 338 312 459 1193 47304 1714 1722 44 1783 17586 7629 1131
internal_value=5.34031e-10 0.0211756 -0.0333027 0.0233659 -0.0181293 0.012179 -0.0525437 -0.0134179 -0.0399516 0.0360275 0.0315038 0.0294459 0.0318064 0.00977515 -0.0172794 0.0217926 0.033834 0.0313578 0.00564884 -0.0123701 -0.0477451 -0.0203987 -0.0167618 0.00474806 0.0142118 -0.0069765 -0.0400706 -0.00748477 -0.0123674 0.00154301
internal_weight=6218.05 3801.11 2416.95 3710.3 1351.31 1969.87 1065.63 1227.1 362.285 1740.43 981.104 871.198 792.582 66.7967 37.7525 17.7632 725.785 640.391 78.616 44.3232 24.5274 563.773 451.313 81.7346 73.6203 39.3355 19.9262 663.328 430.496 232.832
internal_count=707182 120051 587131 85058 180270 73541 406861 127275 77945 11517 9825 9033 7662 1205 1023 523 6457 6127 1371 1033 771 69904 53760 6456 5263 3541 1827 57371 38654 18717
is_linear=0
shrinkage=0.05


Tree=16
num_leaves=31
num_cat=0
split_feature=2 1 12 2 12 1 1 17 8 2 12 11 11 11 11 11 2 13 14 11 14 11 11 13 13 1 11 14 11 11
split_gain=1636.99 270.426 262.412 209.094 109.707 34.3035 32.4579 23.0702 18.2304 21.6264 17.4744 16.6974 16.4083 19.9796 13.1301 18.2421 12.7788 12.4641 14.3682 22.1282 12.4971 12.2178 13.7799 12.4438 30.969 12.3903 12.006 16.0732 11.9342 36.1874
threshold=0.25777748823165897 0.36968240141868597 1.0000000180025095e-35 0.29030622839927678 1.0000000180025095e-35 0.51920416951179515 0.3233629316091538 1.0000000180025095e-35 1.5000000000000002 0.28130168616771706 1.0000000180025095e-35 4.9850000000000012 85.995000000000019 62.995000000000012 10.895000000000001 7.995000000000001 0.25865080654621125 88.500000000000014 794.50000000000011 7.6350000000000007 354.50000000000006 14.605000000000002 15.300000000000002 62.500000000000007 81.500000000000014 0.46739292144775396 12.495000000000003 834.50000000000011 14.830000000000002 17.395000000000003
decision_type=2 2 2 2 2 2 2 2 2 2 2 10 8 10 10 8 2 2 2 10 2 10 10 2 2 2 10 2 8 10
left_child=1 6 3 8 7 17 -1 12 11 14 -8 -2 13 -3 15 16 -10 18 20 -20 -5 26 23 25 -25 -23 27 -16 -11 -30
right_child=2 4 -4 5 -6 -7 10 -9 9 28 -12 -13 -14 -15 21 -17 -18 -19 19 -21 -22 22 -24 24 -26 -27 -28 -29 29 -31
leaf_value=-0.058125533008500499 -0.06404045455616586 -0.014794324964760694 -0.066687328766449588 0.016841122011799794 -0.063545405768357266 0.036691470333158886 -0.03422029485361152 0.0078707108782937792 -0.089906442099046524 0.031859633395472792 -0.062966315689906904 6.8442324900974397e-06 -0.035984015817859857 0.029170043010581039 0.016904892394622843 -0.021380916159515245 0.011301068681535837 0.040617370151075881 0.039763291382741428 -0.024158237422179263 0.030358620939914011 -0.075055353079851228 0.0093881982535653462 0.065293106326545572 -0.089750581937037291 0.061265572112324987 0.042288066777893561 -0.087341385194085436 -0.062246838514812108 0.020266711007941696
leaf_weight=679.52810481627239 10.452588508138431 985.81540570984362 84.31448223273037 332.62824824941345 118.80598148424178 1419.7144909633789 289.87396154238377 117.28321371268248 3.2060774003621182 155.05962624400854 64.659961836354341 384.88555783510674 89.437648094608448 26.537639659130946 34.809158892603591 89.572125647333451 114.72916987957433 99.089007534552366 20.81408126372844 38.736572246532887 351.84656222001649 13.176178718451411 384.65140003466513 8.6970590376295132 5.114975882228463 1.9082467607222504 53.74972435622476 4.137067799922078 14.771747749997301 132.25151368207298
leaf_count=327959 1344 126855 26061 4308 63042 5542 49089 6295 247 2007 28698 13384 17088 1903 1006 5548 3808 915 196 841 3129 860 12090 60 485 18 921 413 879 2191
internal_value=1.2573e-11 -0.0325236 0.0205262 0.0225277 -0.0176811 0.0319473 -0.051727 -0.0132113 0.00742319 0.0109685 -0.039463 -0.00168654 -0.0154555 -0.0136419 0.00622233 -0.00437006 0.00854974 0.0239588 0.0217402 -0.00181645 0.0237896 0.0105641 0.00688659 -0.0264132 0.00787617 -0.0578102 0.0269708 0.00583132 0.0221825 0.0119764
internal_weight=6130.26 2371.94 3758.32 3674 1337.88 2262.83 1034.06 1219.07 1411.17 1015.83 354.534 395.338 1101.79 1012.35 713.751 207.507 117.935 843.114 744.025 59.5507 684.475 506.244 413.548 28.8965 13.812 15.0844 92.696 38.9462 302.083 147.023
internal_count=707182 620929 86253 60192 215183 14931 405746 152141 45261 30533 77787 14728 145846 128758 25456 9603 4055 9389 8474 1037 7437 15853 13513 1423 545 878 2340 1419 5077 3070
is_linear=0
shrinkage=0.05


Tree=17
num_leaves=31
num_cat=0
split_feature=2 2 12 2 12 2 2 12 17 2 2 14 13 14 14 13 14 13 13 13 13 13 14 14 13 16 2 14 17 14
split_gain=1541.78 252.685 234.9 186.428 96.792 36.7143 34.7516 20.4183 18.2958 16.4588 14.6786 13.5908 25.3401 14.9526 25.7207 17.7928 15.9285 19.726 15.9276 15.3757 12.4597 12.5482 11.4608 10.2417 12.047 11.1464 22.5216 14.6955 10.2279 10.3676
threshold=0.25777748823165897 0.22376185655593875 1.0000000180025095e-35 0.30105428695678715 1.0000000180025095e-35 0.27593372762203222 0.18260380625724795 1.0000000180025095e-35 1.0000000180025095e-35 0.33629363179206856 0.24768271744251255 76.500000000000014 16.500000000000004 359.50000000000006 419.50000000000006 55.500000000000007 279.50000000000006 35.500000000000007 19.500000000000004 61.500000000000007 93.500000000000014 103.50000000000001 141.50000000000003 127.50000000000001 28.500000000000004 1.0000000180025095e-35 0.24553493857383732 683.50000000000011 1.5000000000000002 683.50000000000011
decision_type=2 2 2 2 2 2 2 2 2 2 2 2 2 2 2 2 2 2 2 2 2 2 2 2 2 2 2 2 2 2
left_child=1 6 3 5 8 -2 -1 28 10 20 11 -3 -13 16 -15 -16 17 18 -14 -17 -5 -22 -20 -10 -25 -26 -27 -28 -8 -30
right_child=2 4 -4 9 -6 -7 7 -9 23 -11 -12 12 13 14 15 19 -18 -19 22 -21 21 -23 -24 24 25 26 27 -29 29 -31
leaf_value=-0.058283559141660335 0.0025285694354516119 -0.030871735786769952 -0.065295626649636673 0.027739121087715937 -0.062540903166862991 0.01676030204958228 -0.035684236747770784 -0.061617847157823702 -0.082684270886367914 0.039001569142500747 -0.0067497511983622589 0.054368540482154053 -0.079058929303040135 -0.065397915547193056 0.005020024604946537 -0.046685833793845583 0.024770735076795836 -0.051794607061734034 0.053133488432962839 -0.017645236088612258 0.059460047102148528 0.0093911461827793571 -0.0025595668657456385 0.042393590760766292 0.011377260969857465 -0.087341600577025766 -0.047221996921216668 0.050160319599339781 -0.08695747813174097 0.067497653981938285
leaf_weight=588.37991402047919 786.74207962618675 184.7362988909008 79.054681644774973 959.92894210363738 107.61884419020498 1068.8078227441292 356.36290216125781 86.641293603053782 3.176567828282713 749.79047848377377 354.56088208418805 12.803922315128146 5.9413839373737565 31.315510468324646 67.17283379798755 57.479733176412992 38.024676921777427 24.923370670643635 10.969911084044723 220.13846236723475 59.247866709716618 15.864326322451232 58.491129520873073 21.119305229745805 65.954471667530015 9.740728498669343 6.6854603299871078 9.2123077097348851 1.4299255874939252 4.5232512429356575
leaf_count=415002 31807 16662 26061 7108 37169 19278 48039 32553 230 1692 24506 157 612 4185 3084 6521 1845 3268 195 19824 153 154 3487 309 2017 680 281 103 122 78
internal_value=-4.60071e-11 -0.0319169 0.0199717 0.0218234 -0.0171435 0.0107261 -0.0502894 -0.0398127 -0.0130118 0.0333603 -0.0150619 -0.0192012 -0.0151122 -0.0168415 -0.0220114 -0.0180709 -0.00278683 -0.0132315 -0.000484888 -0.023658 0.0292737 0.0488851 0.00623598 0.00585624 0.00835158 0.000502243 -0.0274735 0.00920831 -0.0345984 0.0303982
internal_weight=6046.84 2327.4 3719.44 3640.38 1290.07 1855.55 1037.34 448.957 1182.45 1784.83 1066.56 711.997 527.261 514.457 376.107 344.791 138.35 100.326 75.4024 277.618 1035.04 75.1122 69.461 115.889 112.712 91.593 25.6385 15.8978 362.316 5.95318
internal_count=707182 620929 86253 60192 125135 51085 495794 80792 87966 9107 84346 59840 43178 43021 33614 29429 9407 7562 4294 26345 7415 307 3682 3620 3390 3081 1064 384 48239 200
is_linear=0
shrinkage=0.05


Tree=18
num_leaves=31
num_cat=0
split_feature=1 1 1 1 1 17 1 17 14 1 1 13 14 14 14 13 14 13 14 14 10 9 16 14 2 10 14 14 14 5
split_gain=1424.53 242.352 208.722 41.8224 30.1419 25.0513 18.2234 16.6452 15.9019 15.2256 12.7388 12.7162 21.8056 12.6652 14.9372 11.356 15.437 10.9296 30.6477 37.3759 13.5313 10.2696 9.5918 9.38854 9.2296 9.04577 9.01599 17.9183 15.1508 18.7711
threshold=0.42935977876186376 0.36968240141868597 0.50536864995956432 0.47464659810066229 0.30787265300750738 1.0000000180025095e-35 0.39262515306472784 1.0000000180025095e-35 981.50000000000011 0.56689465045928966 0.44760693609714514 99.500000000000014 895.50000000000011 830.50000000000011 809.50000000000011 87.500000000000014 859.50000000000011 29.500000000000004 264.50000000000006 243.50000000000003 1.0000000180025095e-35 3.5000000000000004 1.0000000180025095e-35 865.50000000000011 0.22204634249210362 1.0000000180025095e-35 443.50000000000006 544.50000000000011 557.00000000000011 2.5000000000000004
decision_type=2 2 2 2 2 2 2 2 2 2 2 2 2 2 2 2 2 2 2 2 2 2 2 2 2 2 2 2 2 2
left_child=1 4 3 7 -1 6 22 8 10 15 11 12 13 14 -2 16 17 -4 19 -19 -21 -6 -3 -18 -24 -15 -20 -28 29 -29
right_child=2 5 9 -5 21 -7 -8 -9 -10 -11 -12 -13 -14 25 -16 -17 23 18 26 20 -22 -23 24 -25 -26 -27 27 28 -30 -31
leaf_value=-0.057402564328549746 -0.0074814952833058019 -0.034958386173800184 0.033241755721352913 0.016979650094146231 -0.033219169818345794 0.0044285434665827751 -0.015180792706871378 0.019708446547460203 -0.061997028361346088 0.037788345942103174 0.0053056966123435721 0.037992095487917793 -0.07650872978655375 0.023295285314866923 -0.083063500342439603 0.042442541969022168 -0.10793867195167264 0.021030455006627348 0.013537452282053481 -0.105958844821261 0.0050831310175870718 -0.049892941446652857 0.061799688508449725 -0.0028633113334469713 -0.020160208148972056 -0.089177099678918501 0.052306647050367333 0.020606354097260148 0.026343571345192364 -0.10872654099094868
leaf_weight=575.42059511487605 347.29265840898734 226.18392784136813 387.24615062039811 794.20168297050986 246.82865828793729 122.84317241201643 815.77452809142414 121.02522649860475 10.198809809633529 677.93712829751894 622.16683010139968 15.885841548675669 11.168178132735191 44.804733558325097 6.6623119226424015 122.39364326838404 3.1091844043694419 21.538482898846269 117.92230277019553 12.027751476503907 3.5541963716968885 147.55288548121462 3.5302260682219631 6.7218550504185259 127.26873190118931 1.8619897792814288 69.312364908168092 6.909990872256456 276.89017568191048 4.7231467319652438
leaf_count=309600 31356 42086 4263 22224 60196 7077 109963 3485 2464 2713 36236 511 2895 2577 1398 1221 138 122 2346 834 82 37065 6380 255 14764 323 325 91 4097 95
internal_value=-8.27184e-11 -0.0312027 0.0191794 0.00810742 -0.050105 -0.0170536 -0.0193038 0.00214133 0.000135688 0.0319668 0.000739283 -0.00590377 -0.00759716 -0.00567611 -0.00890414 0.0281437 0.0262205 0.0269011 0.0221136 -0.0216435 -0.0806305 -0.0394575 -0.0287258 -0.0360947 -0.0179481 0.0188077 0.0255277 0.029479 0.0239951 -0.0319038
internal_weight=5950.96 2265.4 3685.55 1975.27 969.802 1295.6 1172.76 1181.07 1060.04 1710.29 1049.84 427.676 411.79 400.622 353.955 1032.35 909.956 900.125 512.878 37.1204 15.5819 394.382 356.983 9.83104 130.799 46.6667 475.758 357.836 288.523 11.6331
internal_count=707182 587131 120051 103469 406861 180270 173193 81245 77760 16582 75296 39060 38549 35654 32754 13869 12648 12255 7992 1038 916 97261 63230 393 21144 2900 6954 4608 4283 186
is_linear=0
shrinkage=0.05


Tree=19
num_leaves=31
num_cat=0
split_feature=1 1 12 1 12 1 1 17 12 1 17 14 1 13 14 1 14 1 13 14 14 14 14 13 14 1 8 16 16 13
split_gain=1340.59 229.921 213.777 180.005 92.2739 33.5797 29.4086 20.0712 18.7854 13.3511 12.6593 13.42 10.7881 10.53 26.5874 31.3672 11.2942 9.675 9.57373 17.9404 10.4497 12.5434 8.89516 9.26962 11.1412 10.0643 10.6468 9.18944 8.87929 10.0509
threshold=0.42935977876186376 0.36968240141868597 1.0000000180025095e-35 0.50536864995956432 1.0000000180025095e-35 0.47464659810066229 0.29062205553054815 1.0000000180025095e-35 1.0000000180025095e-35 0.40296049416065222 1.0000000180025095e-35 981.50000000000011 0.54233273863792431 86.500000000000014 791.50000000000011 0.51163780689239513 810.50000000000011 0.44760693609714514 99.500000000000014 895.50000000000011 830.50000000000011 809.50000000000011 127.50000000000001 28.500000000000004 632.50000000000011 0.40729366242885595 2.5000000000000004 1.0000000180025095e-35 1.0000000180025095e-35 21.500000000000004
decision_type=2 2 2 2 2 2 2 2 2 2 2 2 2 2 2 2 2 2 2 2 2 2 2 2 2 2 2 2 2 2
left_child=1 6 3 5 7 10 -1 9 -8 -3 11 17 13 14 -5 16 -16 18 19 20 21 -2 -9 28 27 -26 -27 -25 29 -24
right_child=2 4 -4 12 -6 -7 8 22 -10 -11 -12 -13 -14 -15 15 -17 -18 -19 -20 -21 -22 -23 23 24 25 26 -28 -29 -30 -31
leaf_value=-0.057515873124660236 -0.0047214724437350496 -0.020948066648472152 -0.064035619619070672 0.027302618047711398 -0.061290730014461225 0.017864212755576626 -0.034422569594760574 -0.078869579182744537 -0.060073894589766912 -0.0096966329978718582 0.019780540407128136 -0.059421007676214582 0.035638924901210747 0.043197682270138024 -0.11158491556115653 -0.085675105542874677 0.038912474290508467 0.0070956271693245285 0.035026268270487472 -0.075721607594957843 0.019522826688464483 -0.081549910719902585 0.058251664018996244 -0.0036391921400673356 -0.01021323644168844 0.044492030939531239 -0.090873977983410181 -0.058319900647722592 0.054494715975772982 -0.092142421047491999
leaf_weight=509.35906179613085 325.67656132765114 495.0685963871656 76.5821999576292 561.9910530904308 106.99700494104763 775.30405843968038 341.72398009739118 2.9446367591153821 90.21749510007794 564.05497665819712 118.76485193672124 8.6691178632900101 997.59114762488753 92.050601929426193 1.3772514453157807 11.585036918986587 13.143981527071444 596.75573361164425 15.941868077963589 8.6470429252367449 45.734153380151838 5.400764412013813 2.022157579194757 34.487460992997512 18.051748827332631 27.480629053432498 1.5336445653811086 9.886063701938836 17.437162548769265 2.4652810946572572
leaf_count=287278 22413 67058 34993 6131 52995 15493 68996 339 50587 55075 2545 1905 3908 649 56 614 159 25775 339 1879 2165 1027 15 1806 1068 504 106 872 171 261
internal_value=-1.3886e-10 -0.0306114 0.0186231 0.020392 -0.0168373 0.00985696 -0.0493774 -0.0127908 -0.0397802 -0.0149559 0.00434157 0.0025204 0.0323283 0.0274726 0.0250113 -0.0243147 0.0246387 0.00305837 -0.00294377 -0.00451414 -0.00288007 -0.00597475 0.00692554 0.00915407 0.00215304 0.0190994 0.0373368 -0.0158216 0.0383528 -0.0243709
internal_weight=5878.95 2223.73 3655.22 3578.63 1282.43 1900.89 941.301 1175.43 431.941 1059.12 1125.59 1006.83 1677.74 680.148 588.097 26.1063 14.5212 998.156 401.4 385.459 376.811 331.077 116.309 113.364 91.4395 47.066 29.0143 44.3735 21.9246 4.48744
internal_count=707182 587131 120051 85058 180270 73541 406861 127275 119583 122133 58048 55503 11517 7609 6960 829 215 53598 27823 27484 25605 23440 5142 4803 4356 1678 610 2678 447 276
is_linear=0
shrinkage=0.05


Tree=20
num_leaves=31
num_cat=0
split_feature=1 1 1 12 12 12 2 1 1 12 9 13 14 14 14 14 13 2 13 14 13 14 1 13 13 13 14 1 9 14
split_gain=1255 218.842 195.695 111.887 85.0827 55.9804 30.1262 28.1451 16.2422 16.004 10.9302 10.5308 20.0199 16.7492 13.1954 16.6577 12.0915 9.93055 8.99045 18.4739 17.1252 29.2894 17.0879 13.2595 12.1938 21.8643 15.1757 10.1501 10.3795 9.3169
threshold=0.42935977876186376 0.36968240141868597 0.50536864995956432 1.0000000180025095e-35 1.0000000180025095e-35 1.0000000180025095e-35 0.27593372762203222 0.30787265300750738 0.40296049416065222 1.0000000180025095e-35 3.5000000000000004 1.0000000180025095e-35 359.50000000000006 419.50000000000006 42.000000000000007 76.500000000000014 49.500000000000007 0.33629363179206856 2.5000000000000004 1.5000000000000002 31.500000000000004 279.50000000000006 0.46970960497856146 41.500000000000007 35.500000000000007 36.500000000000007 266.50000000000006 0.48013360798358923 4.5000000000000009 402.50000000000006
decision_type=2 2 2 2 2 2 2 2 2 2 2 2 2 2 2 2 2 2 2 2 2 2 2 2 2 2 2 2 2 2
left_child=1 7 3 6 8 17 -2 -1 11 10 -9 -3 14 -14 -13 -16 -15 -4 19 27 -20 22 -22 -23 -24 -26 -27 28 -8 -25
right_child=2 4 5 -5 -6 -7 18 9 -10 -11 -12 12 13 16 15 -17 -18 -19 20 -21 21 23 24 29 25 26 -28 -29 -30 -31
leaf_value=-0.056129272236010636 0.0016615587906631656 -0.033498337522082637 0.027969384718335974 -0.06187867888362867 -0.06048405253151562 -0.066802621461253514 0.0017343255058508457 -0.026336095603593665 -0.007269052636620886 -0.059864572885315936 -0.045923013539145262 0.057252604674681407 -0.065884790300131155 0.039449524444164392 -0.051841331315862264 0.0014978896041860409 -0.02201453701706034 0.035748340367705959 0.030843090518354568 -0.10604587951318181 -0.09618130909148323 0.037279198015008126 0.029333906109551968 -0.018916506417166627 -0.094026798349414173 0.056221468610443248 -0.034496234053221761 0.016566950993343019 -0.046510295944796526 0.014974914746430153
leaf_weight=531.52086628798861 763.95666246861219 102.93007202562876 929.54484925093129 56.858270542987157 101.38564682350261 14.638937823008744 86.289923060219735 197.47329079720657 627.70269549707882 70.094503173051635 111.40918906487059 9.1346186501905304 21.597360993153416 8.2644596771569905 16.579836543649435 124.93442376330495 251.58509609417524 734.42070589913055 175.69435204518959 3.6276739551685742 7.0447585764341047 66.745449395151809 12.485597712919114 21.029824912315235 9.075562516460197 7.4184368373826173 12.177469659131019 135.19540055305697 12.802674906561149 567.4566114336485
leaf_count=309600 53399 16144 9825 29928 52995 5065 2170 36527 57371 38411 22323 339 4916 456 2194 11606 34249 1692 1820 174 499 697 72 661 715 49 433 1833 586 10433
internal_value=2.98776e-10 -0.0300168 0.0180494 0.00722428 -0.0165553 0.0305463 0.0093131 -0.0487063 -0.0127249 -0.0382955 -0.0334008 -0.0191259 -0.0157022 -0.0235762 -0.000991724 -0.00475134 -0.0200597 0.0314028 0.0145461 0.00592342 0.0168796 0.013392 -0.0242246 0.0161592 -0.0119079 -0.0298676 -0.000153166 0.00765713 -0.00449884 0.0137638
internal_weight=5791.08 2174.61 3616.46 1937.86 1264.11 1678.6 1881 910.498 1162.73 378.977 308.882 535.026 432.096 281.447 150.649 141.514 259.85 1663.97 1117.04 237.916 879.128 703.434 48.2018 655.232 41.1571 28.6715 19.5959 234.288 99.0926 588.486
internal_count=707182 587131 120051 103469 180270 16582 73541 406861 127275 97261 58850 69904 53760 39621 14139 13800 34705 11517 20142 4763 15379 13559 1768 11791 1269 1197 482 4589 2756 11094
is_linear=0
shrinkage=0.05


Tree=21
num_leaves=31
num_cat=0
split_feature=2 2 12 12 1 1 1 11 11 13 14 14 12 11 11 11 11 11 11 2 11 11 13 13 14 11 14 13 11 11
split_gain=1186.75 280.949 140.142 103.269 101.895 31.2825 25.7802 19.0879 23.3532 17.408 17.6741 21.2623 15.7196 14.9595 20.3064 18.7507 19.7155 13.7459 15.419 14.5568 13.6661 17.4793 16.9419 23.0075 17.0488 16.8248 14.012 12.2207 16.9104 22.5281
threshold=0.26779066622257236 0.22376185655593875 1.0000000180025095e-35 1.0000000180025095e-35 0.50536864995956432 0.3233629316091538 0.41245476901531225 6.6450000000000005 6.8750000000000009 1.0000000180025095e-35 359.50000000000006 419.50000000000006 1.0000000180025095e-35 9.5150000000000023 7.995000000000001 14.830000000000002 13.945000000000002 188.93500000000003 148.99000000000004 0.28530481159687043 15.495000000000003 13.195000000000002 38.500000000000007 30.500000000000004 127.50000000000001 20.920000000000005 61.500000000000007 55.500000000000007 10.340000000000002 4.995000000000001
decision_type=2 2 2 2 2 2 2 10 10 2 2 2 2 10 10 10 10 10 8 2 10 10 2 2 2 10 2 2 10 8
left_child=1 5 4 6 17 -1 9 -8 -9 -3 20 -12 -7 14 -10 16 -15 18 19 -2 21 22 23 24 -11 -22 -27 -13 29 -29
right_child=2 3 -4 -5 -6 12 7 8 13 10 11 27 -14 15 -16 -17 -18 -19 -20 -21 25 -23 -24 -25 -26 26 -28 28 -30 -31
leaf_value=-0.054655695160023936 0.0072189496998206707 -0.032307692421265147 -0.062820588992747881 -0.059741931280416605 0.030483618896712941 -0.031040150132215578 -0.025972142852681474 0.066759154054056108 0.00013488300338744725 -0.037145397858677189 -0.061128985763463983 0.0025678647230548747 -0.059505611847391393 0.0074276526416199766 -0.049718763778706612 -0.0049101304040568665 0.054480332645572539 0.04306302634695347 -0.014707360182287042 0.017612951665456723 0.044042094837162336 -0.083314716301650063 0.05069674821875695 -0.06816668061228133 0.016036415919113072 0.060849718831091963 -0.0087960278014353865 0.014610476495119016 -0.013099562299631433 -0.054011556386187813
leaf_weight=563.38807108736364 657.6310017965734 138.27073686185759 49.479073814291041 109.69156945601571 1648.4683318533935 296.48222242909833 84.021928497008048 12.56899196282029 46.037573721609078 22.87578413146548 27.585612168419175 73.837442500051111 57.986028619779972 159.65043689054437 36.715766202483792 448.57464374467963 25.870363102992997 35.350780133390799 53.988810490700416 690.58728436019737 29.701142195961438 8.2404136096592975 11.082838441128841 16.408871336723678 44.162592366687022 8.160954346880315 62.76385777478572 14.883927295217289 217.2790030320175 60.885878034983762
leaf_count=327168 19551 14376 17953 45277 8243 113264 7370 97 2558 1869 4215 3416 55362 6954 3824 24734 442 297 3054 9147 926 869 279 2307 1898 151 4142 993 18374 8072
internal_value=8.28323e-11 -0.0251373 0.0206608 -0.0128588 0.0219992 -0.0473339 -0.00954004 -0.00340492 -0.000805387 -0.0163194 -0.0126217 -0.0187948 -0.0356967 -0.00199004 -0.021984 0.000619298 0.013989 0.0122701 0.0114938 0.012543 -0.000649583 -0.0134741 -0.00738595 -0.0151001 -0.00211104 0.0124483 -0.000782249 -0.0156117 -0.0201923 -0.0405317
internal_weight=5712.63 2577.13 3135.51 1659.27 3086.03 917.856 1549.58 813.44 729.418 736.139 597.868 394.472 354.468 716.849 82.7533 634.095 185.521 1437.56 1402.21 1348.22 203.396 102.77 94.5301 83.4472 67.0384 100.626 70.9248 366.886 293.049 75.7698
internal_count=707182 648937 58245 153143 40292 495794 107866 45979 38609 61887 47511 35070 168626 38512 6382 32130 7396 32049 31752 28698 12441 7222 6353 6074 3767 5219 4293 30855 27439 9065
is_linear=0
shrinkage=0.05


Tree=22
num_leaves=31
num_cat=0
split_feature=1 1 1 12 12 12 1 1 17 12 11 11 11 11 11 13 11 11 1 11 9 1 13 13 13 13 13 13 9 11
split_gain=1100.76 201.207 168.108 93.6738 74.6841 44.4324 30.0145 26.9392 22.2164 14.6455 13.995 12.4021 19.8885 11.9846 11.5438 17.3972 14.9991 11.384 11.1225 10.7981 10.9461 10.2177 10.0399 12.8936 9.29748 12.1248 39.9927 12.5878 12.4967 11.8434
threshold=0.42935977876186376 0.36968240141868597 0.50536864995956432 1.0000000180025095e-35 1.0000000180025095e-35 1.0000000180025095e-35 0.46105320751667028 0.30787265300750738 1.0000000180025095e-35 1.0000000180025095e-35 3.7750000000000004 111.89000000000001 85.995000000000019 94.795000000000016 199.97000000000003 35.500000000000007 338.88500000000005 489.64000000000004 0.39262515306472784 5.8050000000000006 3.5000000000000004 0.54233273863792431 8.5000000000000018 57.500000000000007 76.500000000000014 61.500000000000007 58.500000000000007 9.5000000000000018 3.5000000000000004 6.5150000000000006
decision_type=2 2 2 2 2 2 2 2 2 2 10 10 8 8 8 2 8 10 2 10 2 2 2 2 2 2 2 2 2 10
left_child=1 7 3 6 8 14 -2 17 10 19 -3 12 24 -14 21 16 -16 -1 -12 -9 -21 -4 -15 -24 25 26 27 29 -28 -8
right_child=2 4 5 -5 -6 -7 11 9 -10 -11 18 -13 13 22 15 -17 -18 -19 -20 20 -22 -23 23 -25 -26 -27 28 -29 -30 -31
leaf_value=-0.055572079092080964 0.0012447288057518999 -0.044333923007410819 0.025702731104890665 -0.060284949448851689 -0.059178435070881531 -0.064383886042904709 -0.032983471504518927 -0.060119728790672837 0.0090634442203489374 -0.05870618923073545 -0.021806965300217834 0.036554473115430607 -0.10165455385318944 0.023208285111813515 -0.019434930585296478 -9.1059323679663784e-05 0.047076213977700683 0.047016379758070909 -0.010123406734827648 -0.021727618547657659 -0.042883836447438733 0.034090503370809544 -0.086743887999403357 -0.0087916638596285141 0.0044391937585841435 0.033500704072726172 -0.022865365451726641 0.022659782941082392 -0.096506465960324972 0.011155554614988281
leaf_weight=490.00674110121327 784.49336629989557 38.172550726681948 616.62754126696382 50.630852077010786 92.015886454610154 12.736008288105948 16.274962103227153 31.4883318876673 109.48250803910196 64.380230786919128 285.9312966397265 58.37988330796361 4.0303523661568752 13.97604978783056 10.21659163571894 77.755023980280384 49.767722027841955 2.719211269170045 708.30195394018665 173.83589867164847 94.309723153826781 883.0025534380693 7.1261773455189568 20.753178679384291 188.20329596579541 95.603854130487889 22.03418026119471 392.84870370710269 7.8003892740234724 229.54388399817981
leaf_count=309084 46222 8002 6653 29928 52995 5065 547 7555 5142 38411 41044 729 275 368 49 1299 221 516 73087 31845 19450 3295 893 1604 6433 1193 709 7953 460 6155
internal_value=-7.41275e-11 -0.0287701 0.0169823 0.00680854 -0.0158449 0.0286456 0.00865366 -0.0473852 -0.012353 -0.03707 -0.0146242 0.0141547 0.0128446 -0.0193078 0.0293692 0.0155165 0.035748 -0.0550059 -0.0134835 -0.0324211 -0.0291685 0.0306416 -0.0113784 -0.0287169 0.0143939 0.0168458 0.0144639 0.0171071 -0.0421192 0.00823324
internal_weight=5632.45 2090.64 3541.8 1891.7 1233.9 1650.11 1841.07 856.74 1141.89 364.014 1032.41 1056.57 998.195 45.8858 1637.37 137.739 59.9843 492.726 994.233 299.634 268.146 1499.63 41.8554 27.8794 952.309 764.106 668.502 638.668 29.8346 245.819
internal_count=707182 587131 120051 103469 180270 16582 73541 406861 127275 97261 122133 27319 26590 3140 11517 1569 270 309600 114131 58850 51295 9948 2865 2497 23450 17017 15824 14655 1169 6702
is_linear=0
shrinkage=0.05


Tree=23
num_leaves=31
num_cat=0
split_feature=2 2 12 12 1 1 17 2 11 11 12 2 11 11 13 11 11 1 11 11 11 14 14 17 11 13 14 14 9 13
split_gain=1043.79 256.219 115.027 89.9044 88.7668 29.4771 25.8245 17.9859 18.2778 21.5623 15.6411 13.8776 12.9241 22.5975 12.2748 12.0989 16.9409 11.2097 11.4254 16.7975 34.755 13.2616 12.4179 19.6556 11.5236 10.7665 16.3021 15.9401 14.8263 11.9786
threshold=0.26779066622257236 0.22376185655593875 1.0000000180025095e-35 1.0000000180025095e-35 0.50536864995956432 0.30787265300750738 1.0000000180025095e-35 0.24768271744251255 9.6900000000000013 7.995000000000001 1.0000000180025095e-35 0.28530481159687043 14.830000000000002 13.945000000000002 18.500000000000004 6.6450000000000005 6.8750000000000009 0.56689465045928966 31.905000000000005 41.240000000000009 39.985000000000007 588.50000000000011 727.50000000000011 1.0000000180025095e-35 34.920000000000009 1.0000000180025095e-35 359.50000000000006 419.50000000000006 4.5000000000000009 55.500000000000007
decision_type=2 2 2 2 2 2 2 2 10 8 2 2 10 10 2 10 10 2 8 10 10 2 2 2 8 2 2 2 2 2
left_child=1 5 4 6 11 -1 7 25 9 15 -7 -2 13 -10 -8 -9 -17 18 -6 20 21 -20 23 -23 -24 -3 28 -28 -27 -29
right_child=2 3 -4 -5 17 10 14 8 12 -11 -12 -13 -14 -15 -16 16 -18 -19 19 -21 -22 22 24 -25 -26 26 27 29 -30 -31
leaf_value=-0.054523055262293424 0.0063770390674457965 -0.030033956309471383 -0.061104221116516061 -0.058545673975468518 0.028278260131933953 -0.031468101327142992 -0.081023331700930484 -0.025827732917808589 0.0019433400052210606 -0.051436520340183201 -0.058213683293428145 0.016294127431536892 -0.0066952498908915197 0.053348854519330795 0.011812093032953132 0.061927470814157864 -0.0074086331647210029 0.033671077769588005 0.028927810692978867 0.027900879432519239 -0.068037391795036428 -0.06915299043136125 -0.0377488284218081 0.019732684936865252 0.058360526932717621 -0.010563930845014731 -0.058544112522587156 0.0012512085789515189 0.022347078953720071 -0.022461951625014603
leaf_weight=472.39553111247369 689.64844525663648 136.50462071783841 43.679371746722609 99.054784516105428 733.36940206424333 325.27334624784999 3.6441659522242835 54.061764029436745 132.78138099890202 43.052459621569142 65.706746799667599 722.16264479979873 394.17297141894232 25.481375029543415 155.3521342856111 11.371706307865677 39.100821332423948 651.24331478634849 53.705835790140554 128.53664881270379 15.534184836084021 14.229084154358135 4.5679549658670995 11.04929802380502 9.8316844687797129 129.4627049646806 25.558335693436675 67.257337023387663 46.516713705612347 255.81911459565163
leaf_count=307970 21664 14484 17953 45277 4462 123025 261 4367 6520 6180 64799 10385 23512 415 4251 91 2429 1423 470 814 452 425 85 71 41 9620 4185 3084 2122 26345
internal_value=6.8037e-10 -0.0241205 0.0194572 -0.0123911 0.0206171 -0.0461181 -0.00938358 -0.0116109 -0.00602533 -0.0216566 -0.0359629 0.0114498 -0.00184935 0.01022 0.00968432 -0.00939171 0.00821313 0.0285961 0.0251918 0.0156593 0.00121268 0.0127323 -0.00918907 -0.0303006 0.027872 -0.0175252 -0.0142704 -0.0205325 -0.00186455 -0.0175254
internal_weight=5560.13 2482.57 3077.56 1619.19 3033.88 863.376 1520.14 1361.14 700.022 147.587 390.98 1411.81 552.436 158.263 158.996 104.534 50.4725 1622.07 970.824 237.455 108.918 93.3839 39.678 25.2784 14.3996 661.119 524.614 348.635 175.979 323.076
internal_count=707182 648937 58245 153143 40292 495794 107866 103354 43514 13067 187824 32049 30447 6935 4512 6887 2520 8243 6820 2358 1544 1092 622 496 126 59840 45356 33614 11742 29429
is_linear=0
shrinkage=0.05


Tree=24
num_leaves=31
num_cat=0
split_feature=1 1 1 12 12 12 1 1 17 12 17 1 1 13 14 16 9 10 13 14 13 13 14 14 13 14 16 13 14 14
split_gain=976.744 181.798 158.322 78.0508 64.5982 36.3828 27.6832 25.8606 17.6817 15.0602 13.0108 11.0783 8.91362 9.81078 12.264 8.85908 8.42282 8.26265 7.75874 27.2202 30.7813 8.6324 14.5518 13.0206 9.27166 8.98891 11.5554 7.96393 18.5363 15.7134
threshold=0.42935977876186376 0.36968240141868597 0.50536864995956432 1.0000000180025095e-35 1.0000000180025095e-35 1.0000000180025095e-35 0.46105320751667028 0.29062205553054815 1.0000000180025095e-35 1.0000000180025095e-35 1.0000000180025095e-35 0.39262515306472784 0.56689465045928966 86.500000000000014 859.50000000000011 1.0000000180025095e-35 3.5000000000000004 1.0000000180025095e-35 29.500000000000004 264.50000000000006 33.500000000000007 51.500000000000007 544.50000000000011 419.50000000000006 47.500000000000007 557.00000000000011 1.0000000180025095e-35 77.500000000000014 828.50000000000011 818.00000000000011
decision_type=2 2 2 2 2 2 2 2 2 2 2 2 2 2 2 2 2 2 2 2 2 2 2 2 2 2 2 2 2 2
left_child=1 7 3 6 8 12 -2 -1 11 16 -8 15 13 14 18 -3 -9 -16 -4 20 -20 23 -23 -21 -25 26 -24 -27 29 -29
right_child=2 4 5 -5 -6 -7 10 9 -10 -11 -12 -13 -14 -15 17 -17 -18 -19 19 21 -22 22 25 24 -26 27 -28 28 -30 -31
leaf_value=-0.054833716792597603 0.00054536386279615537 -0.029419984295963042 0.029129947138470353 -0.058918188658861628 -0.058056744336187349 -0.062428192144741206 0.011131828006578654 -0.026017940351528906 0.0066506860549456412 -0.057437092824938946 0.029483243087376227 -0.011070532586074237 0.032649990551779563 0.038552156663761772 -0.10675518371487352 -0.011534568819838178 -0.043068259080869184 0.023580779306267261 0.0061581950276822194 0.014767691303932469 -0.099528518458729565 0.048075482487860699 -0.10756163388975698 -0.10879627187794315 0.016343211463827865 0.028842248729891246 0.01016386852879771 -0.00022358770021401774 0.037027038049133661 -0.086632956872578881
leaf_weight=416.1207886338525 773.78240454755723 181.49495623563416 362.183474146761 45.041072339459788 82.963678968750173 11.171709809161255 935.86142919259146 201.53693492838647 110.54640004038811 72.408244524733163 107.69916203455068 719.78784099163022 647.05109266797081 117.99640080984682 3.0297292415052643 111.93688491440844 113.06951405649306 2.031236250884831 24.38090446870774 101.8623544704169 9.6030729000922275 64.448867577128112 2.9742152369581145 3.7797890147194257 2.4328681640326977 185.20896962564439 6.9673400418832898 31.8163459491916 32.166301806457341 6.3036267887800923
leaf_count=287278 46222 29122 2938 29928 52995 5065 25939 42767 5142 50587 1380 78195 1946 789 201 14816 26229 37 197 1378 688 193 111 64 20 1822 65 580 249 239
internal_value=-2.63777e-10 -0.0277482 0.0160361 0.00610047 -0.0154803 0.0274907 0.0077119 -0.0461811 -0.012337 -0.0368777 0.0130258 -0.0144087 0.0281169 0.0250526 0.0231545 -0.0225971 -0.0321458 -0.0544444 0.0236253 0.0194009 -0.0237064 0.0227458 0.0267637 0.0104817 -0.0597918 0.0215891 -0.0250561 0.0234042 0.00907442 -0.0145125
internal_weight=5487.66 2009.87 3477.79 1862.38 1206.73 1615.41 1817.34 803.135 1123.77 387.015 1043.56 1013.22 1604.24 957.185 839.189 293.432 314.606 5.06097 834.128 471.945 33.984 437.961 329.886 108.075 6.21266 265.437 9.94156 255.495 70.2863 38.12
internal_count=707182 587131 120051 103469 180270 16582 73541 406861 127275 119583 27319 122133 11517 9571 8782 43938 68996 238 8544 5606 885 4721 3259 1462 84 3066 176 2890 1068 819
is_linear=0
shrinkage=0.05


Tree=25
num_leaves=31
num_cat=0
split_feature=2 2 1 1 17 2 11 11 11 1 5 2 13 14 14 14 14 11 13 14 11 1 13 13 1 11 2 11 13 13
split_gain=925.543 230.185 102.57 28.2819 25.6795 19.1994 16.0333 13.3071 12.9597 13.2948 11.773 10.2763 10.0299 15.9122 11.7926 15.0098 12.8581 11.144 9.88554 18.7442 11.392 16.5086 10.2163 10.0239 9.65322 9.08903 11.2195 8.92642 8.86807 13.5466
threshold=0.26779066622257236 0.22376185655593875 0.50536864995956432 0.3233629316091538 1.0000000180025095e-35 0.24768271744251255 5.9050000000000011 188.93500000000003 148.99000000000004 0.47464659810066229 2.5000000000000004 0.32087523937225343 1.0000000180025095e-35 42.000000000000007 59.500000000000007 359.50000000000006 419.50000000000006 258.75000000000006 8.5000000000000018 610.50000000000011 150.91000000000005 0.48706200718879705 3.5000000000000004 74.500000000000014 0.40042935311794287 3.7750000000000004 0.24993843734264373 7.8650000000000011 55.500000000000007 61.500000000000007
decision_type=2 2 2 2 2 2 10 10 8 2 2 2 2 2 2 2 2 10 2 2 10 2 2 2 2 8 2 8 2 2
left_child=1 3 7 -1 5 12 25 8 9 -2 -8 27 -3 -14 -15 -16 -17 28 22 -20 21 -21 -10 -23 -6 -7 -27 -4 -18 -30
right_child=2 4 11 -5 24 6 10 -9 18 -11 -12 -13 13 14 15 16 17 -19 19 20 -22 23 -24 -25 -26 26 -28 -29 29 -31
leaf_value=-0.052607838546113984 0.0036233931170863046 -0.031913834362547945 0.034480210726811754 -0.033574851830677065 -0.015643717634641424 0.0086832369238627142 0.0031275621724483255 0.039137768247918925 -0.014500883693359435 0.013597846887480875 -0.011082423318133002 0.029887667843600647 0.043123726640285631 -0.072545012214131996 -0.0047272614196424943 -0.056525818533493692 -0.0055884495158127524 0.081608828369534786 -0.084798480435162304 -0.076673875917382978 0.048269557371665855 0.030022332290248262 0.072098067468949992 -0.10283332317934693 0.013318312960430612 0.0080036365175787921 -0.060152068847451438 0.018090387841827146 -0.047578925761134483 -0.019648697663520058
leaf_weight=482.23600920813624 638.0341116602649 144.72865722377901 103.61724616860738 327.88947539989022 37.335944187303539 9.0205942764296179 213.37816095550079 34.907614533556625 8.7228902388014813 701.24612015020102 459.96745204177569 1074.3874693672406 10.74329575197771 9.8468278002110292 163.94862315899809 26.39740441145841 72.501995071448619 2.6609777206322169 10.943199760047717 9.1150764245539957 6.8744530586409374 10.593622248037716 5.5871005719527593 1.6394931357353915 125.41654917132109 7.47790997265838 31.362743211269844 419.0314260009327 54.396581217035418 215.00827947218204
leaf_count=327168 28070 20724 986 168626 2412 971 15715 413 485 14062 38264 5038 398 1426 14886 5337 5522 82 1505 1454 39 243 24 132 3800 822 5757 5794 8835 28192
internal_value=7.23897e-10 -0.0232251 0.0183848 -0.0449044 -0.0121388 -0.0142928 -0.00856697 0.00864646 0.00788224 0.00884601 -0.00657939 0.0270903 -0.0201902 -0.0171358 -0.0183242 -0.017326 -0.0228941 -0.0203176 -0.016255 -0.0292494 -0.0077105 -0.025737 0.0193103 0.0122169 0.00667433 -0.0365297 -0.0470302 0.0213397 -0.0211108 -0.0252882
internal_weight=5419.02 2394.32 3024.7 810.125 1584.19 1421.44 721.207 1427.66 1392.76 1339.28 673.346 1597.04 700.233 555.504 544.761 534.914 370.965 344.568 53.4758 39.1658 28.2226 21.3482 14.31 12.2331 162.752 47.8612 38.8407 522.649 341.907 269.405
internal_count=707182 648937 58245 495794 153143 146931 61529 46427 46014 42132 53979 11818 85402 64678 64280 62854 47968 42631 3882 3373 1868 1829 509 375 6212 7550 6579 6780 42549 37027
is_linear=0
shrinkage=0.05


Tree=26
num_leaves=31
num_cat=0
split_feature=1 1 1 12 12 12 1 17 11 1 12 11 11 13 13 9 13 1 13 7 13 11 11 11 11 11 1 1 8 13
split_gain=866.61 220.747 97.5053 79.9167 53.0139 33.802 25.22 21.5322 16.4089 15.6823 14.623 11.7603 13.4054 11.3578 11.8242 11.5321 10.9731 10.9135 10.6656 10.3763 11.7578 10.2181 15.2968 11.1059 13.95 11.9416 11.1346 10.7752 10.3284 17.7832
threshold=0.44616404175758367 0.36968240141868597 0.50536864995956432 1.0000000180025095e-35 1.0000000180025095e-35 1.0000000180025095e-35 0.29062205553054815 1.0000000180025095e-35 338.88500000000005 0.41334791481494909 1.0000000180025095e-35 111.89000000000001 85.995000000000019 1.0000000180025095e-35 40.500000000000007 4.5000000000000009 47.500000000000007 0.47464659810066229 49.500000000000007 1.0000000180025095e-35 8.5000000000000018 9.6900000000000013 7.995000000000001 15.005000000000001 12.495000000000003 9.9400000000000013 0.43359172344207769 0.43582126498222357 1.5000000000000002 54.500000000000007
decision_type=2 2 2 2 2 2 2 2 8 2 2 10 8 2 2 2 2 2 2 2 2 10 10 10 10 10 2 2 2 2
left_child=1 6 4 7 11 -4 -1 8 9 13 -8 12 17 -3 15 -15 -16 -2 -18 20 -14 22 27 24 25 26 -23 -11 29 -26
right_child=2 3 5 -5 -6 -7 10 -9 -10 21 -12 -13 19 14 16 -17 18 -19 -20 -21 -22 23 -24 -25 28 -27 -28 -29 -30 -31
leaf_value=-0.05402747576189694 0.004746170851929841 -0.029133447708718521 0.026928997730011672 -0.057352044118282652 -0.058924965140170732 -0.061775968034585294 -0.031067720145220374 0.0079109864572719495 -0.04377288749383848 -0.021613292326471231 -0.056812536384264395 0.028978544766035931 0.025527451054070668 -0.0099165921514827692 -0.049679254070113858 0.01903691439484223 0.061327694380123601 0.014073035115824431 -0.016654971993152974 -0.057328061875825169 -0.026361384332973997 0.057574729028396221 -0.050252264338947042 -0.0073244476856691295 0.020485512688734272 -0.013237868864424638 -0.083952705199237518 0.012562864340522735 0.030258282249332247 -0.082795757612719817
leaf_weight=383.19452751615609 598.13745071482845 132.06596630060812 1573.6899190268014 92.339641704456881 28.755542935366975 10.813365651003549 303.83182332557044 159.97346735338215 38.252194493310526 60.067907577496953 67.390569882059935 74.580031845718622 18.967185971210711 127.71371986187296 25.458014190313406 47.064989420352504 4.4466609449591479 659.41247584379744 314.00762731581926 11.646405842737293 25.723788524279371 10.860852000070734 28.290209807804786 344.07160486129578 13.938418830395678 78.450293203466572 1.593669322784989 37.437314747599885 72.879072065348737 5.9456527966540298
leaf_count=287278 26215 21031 11517 64161 18762 5065 68996 6346 9324 6993 50587 1263 546 13294 5766 3111 89 13206 41149 1487 2778 269 5057 28770 882 6569 181 2429 3087 974
internal_value=-2.32661e-10 -0.0227449 0.0178011 -0.0122035 0.00827252 0.0263236 -0.0450295 -0.00942884 -0.011495 -0.0105484 -0.0357414 0.0096642 0.00856786 -0.0160427 -0.0127096 -0.0021199 -0.0180913 0.00963683 -0.0155661 -0.0152935 -0.00433937 -0.00507741 -0.0178829 -0.002025 0.00790263 -0.00601725 0.039465 -0.00849129 0.0215436 -0.0103972
internal_weight=5351 2349.27 3001.73 1594.86 1417.22 1584.5 754.417 1502.52 1342.54 1304.29 371.222 1388.47 1313.89 650.757 518.691 174.779 343.912 1257.55 318.454 56.3374 44.691 653.535 125.795 527.74 183.668 90.9048 12.4545 97.5052 92.7631 19.8841
internal_count=707182 626343 80839 219482 64257 16582 406861 155321 148975 139651 119583 45495 44232 84440 63409 16405 47004 39421 41238 4811 3324 55211 14479 40732 11962 7019 450 9422 4943 1856
is_linear=0
shrinkage=0.05


Tree=27
num_leaves=31
num_cat=0
split_feature=2 2 2 12 12 12 2 17 12 11 2 11 11 11 14 14 2 2 11 17 2 14 11 11 14 14 14 14 11 11
split_gain=810.357 211.826 88.685 72.9975 45.7936 33.2283 27.2561 17.9392 15.5196 14.4602 14.2677 12.0899 11.2671 12.3409 18.4789 13.5052 13.0757 12.3142 10.8646 11.7664 10.8051 11.4559 10.4357 9.89832 9.81313 12.4935 11.8897 10.6623 12.0885 11.8303
threshold=0.26779066622257236 0.22376185655593875 0.30105428695678715 1.0000000180025095e-35 1.0000000180025095e-35 1.0000000180025095e-35 0.17436347901821139 1.0000000180025095e-35 1.0000000180025095e-35 5.9050000000000011 0.24768271744251255 106.40000000000002 14.895000000000001 15.300000000000002 862.50000000000011 768.00000000000011 0.29698111116886144 0.28130168616771706 15.995000000000003 1.0000000180025095e-35 0.32087523937225343 928.50000000000011 4.5200000000000005 489.64000000000004 1.5000000000000002 359.50000000000006 419.50000000000006 538.50000000000011 9.6900000000000013 9.8650000000000002
decision_type=2 2 2 2 2 2 2 2 2 10 2 10 8 10 2 2 2 2 10 2 2 2 8 10 2 2 2 2 10 10
left_child=1 6 4 7 11 20 23 9 -8 22 24 12 17 14 15 16 -14 -2 -15 -20 21 -4 -3 -1 -11 -26 -27 -28 -29 -30
right_child=2 3 5 -5 -6 -7 8 -9 -10 10 -12 -13 13 18 -16 -17 -18 -19 19 -21 -22 -23 -24 -25 25 26 27 28 29 -31
leaf_value=-0.054292879553343033 0.0031495088287760136 -0.0050287796551420488 0.017876845463630966 -0.056905961786427497 -0.058288400915067852 -0.060881278888888883 -0.03020476288346409 0.0069557903382188513 -0.056479234472729678 -0.028390846857783487 -0.0041458184297185679 0.028507129755204794 -0.02795430944321578 0.039979037393288654 -0.09591281014243791 0.059194302187902365 0.029246403428603303 0.018254956132467953 0.00193896405629548 0.026929032540028437 0.028625509770909968 0.042385351174876608 -0.038276495277162134 0.048930339527162345 -0.00060182795865731682 -0.053643315210799819 0.0046081295578872649 -0.050378796041792885 0.11338990937848366 -0.01672520732763259
leaf_weight=364.06329416914377 211.08821758255363 33.95005996490363 523.29300527321175 84.048705397115555 25.811406258930219 11.178251332894432 327.8586563434219 157.42921801609918 67.829515787030687 111.39658254088135 631.05838925659191 74.624999740626663 46.892943202052265 22.205231952946633 6.6044002000708124 6.6822228659875682 12.69579557655379 373.91241082479246 497.48262188071385 52.029278609901667 1055.2801599148661 52.459665546193719 77.427030860155355 2.3373635794268912 160.0116842474672 21.660564153688028 54.494083208381198 28.671515998081304 1.7638092678971578 182.77580218290677
leaf_count=400164 7182 2499 5301 45277 13352 4601 54306 4512 40261 12879 38125 908 3203 354 533 86 285 5139 12938 557 3553 253 10339 1063 10242 4120 2451 4336 63 18300
internal_value=4.98095e-11 -0.0222367 0.0172581 -0.0115943 0.00766104 0.0250307 -0.0438079 -0.00898699 -0.0347088 -0.0109129 -0.00930284 0.00896623 0.00778027 0.00322063 -0.016157 -0.00820878 -0.0157673 0.0128044 0.00569065 0.00430509 0.0256195 0.0201099 -0.0281419 -0.0536344 -0.0151062 -0.0118131 -0.0180126 -0.0151296 -0.0201744 -0.0154816
internal_weight=5279.02 2306.78 2972.24 1544.69 1330.03 1642.21 762.089 1460.64 395.688 1303.21 1191.83 1304.22 1229.59 644.592 72.8754 66.271 59.5887 585.001 571.717 549.512 1631.03 575.753 111.377 366.401 560.774 449.377 289.366 267.705 213.211 184.54
internal_count=707182 648937 58245 153143 44537 13708 495794 107866 94567 103354 90516 31185 30277 17956 4107 3574 3488 12321 13849 13495 9107 5554 12838 401227 52391 39512 29270 25150 22699 18363
is_linear=0
shrinkage=0.05


Tree=28
num_leaves=31
num_cat=0
split_feature=2 2 1 12 12 12 1 1 12 17 2 11 11 11 11 11 8 14 14 11 7 14 13 5 14 11 11 14 11 11
split_gain=767.453 202.224 82.2684 68.3508 44.758 27.3994 26.5481 17.5692 14.831 14.7556 12.2071 10.3813 9.52874 34.2154 10.1458 18.4436 19.932 10.1797 23.755 14.8917 13.901 12.069 27.5182 9.83898 12.2302 9.6949 15.2075 23.2455 14.4727 16.0914
threshold=0.26779066622257236 0.22376185655593875 0.50536864995956432 1.0000000180025095e-35 1.0000000180025095e-35 1.0000000180025095e-35 0.29062205553054815 0.40296049416065222 1.0000000180025095e-35 1.0000000180025095e-35 0.28530481159687043 338.88500000000005 39.985000000000007 40.00500000000001 25.995000000000001 25.355000000000004 2.5000000000000004 221.50000000000003 359.50000000000006 23.430000000000003 1.0000000180025095e-35 775.50000000000011 86.500000000000014 2.5000000000000004 268.50000000000006 12.020000000000001 19.995000000000001 818.00000000000011 8.4750000000000032 7.8650000000000011
decision_type=2 2 2 2 2 2 2 2 2 2 2 8 8 8 10 10 2 2 2 10 2 2 2 2 2 10 10 2 10 10
left_child=1 6 4 7 10 12 -1 -3 -8 11 -2 -9 14 -14 15 17 -17 -4 19 23 -21 -20 25 24 -19 28 27 -27 29 -23
right_child=2 3 5 -5 -6 -7 8 9 -10 -11 -12 -13 13 -15 -16 16 -18 18 21 20 -22 22 -24 -25 -26 26 -28 -29 -30 -31
leaf_value=-0.053286393303463492 0.0043516088086000158 -0.016935837555433077 0.032886546079314426 -0.056507319055863883 -0.057839821575786057 -0.060245138058330518 -0.029952207692126455 -0.0065800379248154217 -0.056149038705951108 0.011759288139887608 0.013845659314906437 -0.044297757661230425 -0.045164179850995662 0.021835769270684247 0.0398116557577472 -0.078099583223540603 0.027198703035410995 0.005253569843848162 0.034603990207684558 -0.10339423641687084 0.007890251711281283 0.017514836392785997 0.034234114633582023 0.014735414793847781 -0.084573824264987829 0.039950184844684454 0.049559829919089755 -0.044321478371970688 0.049445283235716925 -0.04449660032413693
leaf_weight=351.03333258620114 664.36340135009959 469.09960767900338 391.22191218286753 79.828042084991466 25.37075862873462 9.4323279164382239 324.06050541516743 845.02383209590334 64.836778879209305 113.80292090657167 690.42043460113928 18.645650551829021 20.241408606059849 325.14996164292097 143.41741116135381 8.8394985795021057 9.142194140702486 10.316202879883351 265.87638673116453 6.1672292901203019 5.1491264719516039 37.739264694973826 149.42342274310067 83.180064641870558 5.9891758151352397 10.668819751590489 8.1197212138213199 35.121508469805121 21.038139174692333 14.473460158333181
